0.49351869120681585 -0.28708079987792995 -0.5362797898133972 -0.14536696182041153 -0.4604976214339446
-0.3721947240318917 -0.26461933813786676 -0.25159501317380395 -0.23400442169631544 0.19523058593466974
-0.05351324272243121 0.6271403368874703 0.130870106267596 0.4389998853828766 0.5737468660930478
0.06524695078359577 -0.08174756300074952 0.04980693108737757 -0.3452786728586366 -0.19324314733195164
0.24671667770004854 -0.27616197824414435 0.10787108923475112 0.28538537120393936 -0.3797577865525578


0.23526655081642825 0.3957063581411764 -0.01387725888112354 -0.05479930411315283 0.33021939232260816
-0.064925222091271 -0.5238948369521509 0.07492718034476496 0.18563032725182285 -0.02234135515826579
0.4517909494247727 0.13178844557092267 -0.008301969800585311 0.8247766251342113 -0.4072771532224356
0.13045797398883058 0.4108246443769478 -0.451941985752327 -0.23362097612905697 0.056964425074431016
0.1962977194925954 -0.3249970379597614 0.04946431630256451 0.2760637478048738 -0.3025444463843968


0.2214321226652132 0.39615908198817884 0.04443911367690829 0.815692820502505 0.3307834403144704
0.11932541537298993 0.2956141116257094 -0.029714008042422232 -0.14445538215578813 -0.16586192091656693
0.19195742312216518 -0.2548020269283436 0.1625045047981445 -0.18213363197473834 -0.47359463973210564
-0.0896127764009271 -0.12547219532406223 -0.16673865414606814 0.057290239585820385 0.16642145298260683
0.024482769591585813 -0.0692001923877648 0.057895924216592086 -0.17198830508745983 -0.07767475740504941




0.01994533525321437 0.04235937259968297 -0.17584285827002694 -0.20621757717327097 0.24969274337533026
-0.0205499626173801 -0.3711854931373417 -0.2236336845495064 0.28231966801255776 0.06373914866495584
0.009324040092389784 0.03700726800938928 0.5006414058117281 0.00962836182859365 -0.2597549540804262
-0.4121653482754627 0.2979009154917056 -0.2491200602154383 -0.5485381340211739 0.1862920610643856
0.44089470641026596 -0.13917071913075477 0.19056859943472093 0.6538489349356895 0.34764934121423213


0.17646574934435233 0.066429910651222 0.4565814819154823 -0.36748923687954954 -0.9700970119572309
-0.5434906955426628 0.33698112191030255 0.26601601993057195 -0.45618391536633923 0.46118072380208686
0.7642357787812396 0.14633800840199432 0.11098152399274969 0.5795512748127044 0.2590960114460256
-0.5819194052274232 -0.6475627247568587 0.6042259844476691 -0.273894708624552 -1.0622028144433093
-0.5899494113992648 0.4176936775772265 0.6812532430304302 -0.1619383058286854 0.311497345813037


0.7724205955745573 -0.14737309341314436 -0.298689821706183 -0.0833680962431647 0.13815007506224447
-0.48053061320465645 -0.6523082344879434 0.8620932293454137 -0.16335865183702222 -0.6579486209207509
-0.49431067734274664 0.5132070318039192 0.6097468153078195 -0.4299552261555077 0.11544535724927636
0.27919804414449 0.10504718986778724 -0.5117009043866833 -0.21358587705538334 0.4026932208282006
0.04664452157151796 -0.26855456636410086 0.4111882218007209 -0.13190896755633086 -0.3126574744531274




-0.03386178991816873 -0.03410002917660939 0.22894639514433254 0.24306803199100654 -0.17777292452630775
0.03965419470988294 -0.06677122052523939 -0.13237406096384757 0.3394710308589737 -0.30703578406079585
9.421377020770199e-05 0.5296740657354216 -0.5641677051410772 0.28033628328457033 0.6237325350161902
0.7727702955052437 -0.647746421052072 -0.521657253173947 1.1295609095121122 -0.8108053838234813
-0.7461048408971183 0.9649026665452923 -0.7225659620295164 -0.7314925921705047 0.4880322585954949


-0.40362461400940486 -0.3282539397404502 0.13804801819696783 -0.2906184669911208 -0.18141893461658656
0.527105687309363 -0.4183715575526281 -0.1914118090296268 0.8363638666059653 -0.7433883568128434
-0.3286945884994338 0.9223449463627392 -0.784588080422404 -0.4515701992952366 0.5942763214122317
-0.3831662640812491 -0.2642420885771501 0.1555150124728562 -0.29911054139371646 0.10527328627007432
-0.1225158154604918 -0.25208260042815744 0.0655065531961154 0.05247856396748283 -0.2545627047613454


0.15534990125647863 0.0023153378680441767 -0.16107519791904854 0.19392783850118298 0.04049393208356403
-0.21483330334946563 0.2605460843613069 -0.3144970536711624 0.025919541818099055 0.2110199755666399
-0.5881107759865962 0.2801976620667582 0.431928304092369 -0.640292333669641 0.44364551590988
0.6153931476287102 -0.6964882988048264 0.3041633144360554 0.6506440759936428 -0.6006182257156604
0.2298924045608324 0.4987219689466347 -0.5751744232987248 0.023311497533501466 0.45427839750891275




0.7025905723409823 -0.2524890961335871 0.05039512237814329 -0.24980346056028035 -0.7874933091887111
-0.19661398644057818 -0.27723764675605733 0.03526936573819289 -0.07613311041721178 0.11176973551902793
0.3566608096949649 0.11868971109538962 -0.1610857575863735 0.35586335413933634 0.09475032256688254
-0.0653079294268479 -1.0760325100122035 -1.029596678323528 0.28434538707570356 -0.46473913092266494
-0.07565428111446668 0.5513571134565605 1.1610343829596153 1.163890436599252 -0.3539045279898911


0.098379252506027 -0.10803905857567728 -0.2428422370018771 0.24395413791460868 -0.24127824130881573
-0.21043278900878776 -1.3501430267143477 -0.9308678187265653 0.6879720977321571 0.16051270570913428
0.41214512709900236 0.43918875889440157 0.7751777786310322 0.7353553449041482 -0.334067272503705
-0.16040962388927832 -0.09260909802526711 -0.13840973816982996 0.23811718924650244 -0.3561522394000416
0.2429404891537404 -0.3876952559710031 -0.1971905152555382 0.27323689147791974 -0.1349831781840897


0.18674681575182422 -0.20134663186989255 -0.007712195158608856 0.17031262772093847 -0.012699753016882342
0.34237524932798075 0.263658240034842 -0.3766155130976911 0.21076872057538773 -0.28723677901337313
0.2475634043629372 0.03544599566464616 -0.06025795348913376 -0.24736438219459986 -0.06639848510737772
0.16913298460759527 -0.5615535197486056 0.2621776283855069 0.21003993965118328 -0.0843101583859478
0.514279923386458 0.005320790501421901 -0.18026252805058982 0.21712326511525645 -0.08168281391792147




-0.43177473239727804 0.3172905259038505 -0.1512289359200796 -0.3446318786955485 0.9268288157038276
-0.6247767724033148 -0.7822619581097661 0.6915313572735531 -1.2631485012437735 -0.39007610926044195
0.6642604755023676 -0.4660839021647249 0.24157752487741463 -0.11330338859761876 0.4949044723323722
-0.1875756726001119 0.18439471182528452 0.00143173656977556 -0.05022035496180798 1.2636179228767508
-0.2924110921286885 -0.0005625752106796312 1.5737774844988013 -0.33278916628677957 -0.4524231828098094


0.5636698917217996 -0.713122005708427 -0.26744972802336686 -0.07334407164457077 0.04489106141463855
-0.0958405038854457 0.16693403710134772 0.2835885911114789 -0.9915395039691537 0.08953249421577084
-1.3118058868677218 0.12092826169635343 1.1254192465191761 -0.4032476603027238 -0.06101304389764462
0.5634056543039068 -0.4390614859267641 -0.1048162481358301 -0.009614886902339708 -0.0014726811513554108
0.2269279268990373 -0.07495608834166716 0.7374829761442608 -0.17745393187591393 -0.1265193415393726


0.0522027423491551 -0.14171845646679024 0.33437557507907034 0.0211495507795368 -0.5740115211943687
0.0649287846344336 -0.3240333823729437 0.21065541524812337 -0.13516381430237334 0.19153423079407908
0.2853535690248004 -0.8500691080793809 0.2433001462732615 0.29935796058323855 -0.20486135602029484
0.33093096615130585 -0.1835275896807506 -0.4043524313117033 0.2684682952046457 0.06239738757754131
-0.0697161557584192 0.0026898033833415856 0.21465579213096106 -0.25360721750323567 0.40267639444991393




-0.18821058518436465 0.23250267756227147 0.010226237474196187 0.20137485875144687 -0.3421737434808977
0.19903780143082364 0.10952299829698071 -0.4525546091039918 0.12175487885248701 0.3525457442141336
-0.016375162339451396 0.0524077667470874 -0.19502419507127863 0.10743581525143837 0.017070787071268762
-0.1908276633418541 0.12796852042925314 -0.20961564642411615 0.2152661799154881 -0.20386224699819624
0.43556439696769356 -0.43068974793805753 -0.7307007656039114 -0.24109475742790104 0.5629524754590222


0.31938822037542486 0.34743538381539424 -0.45227636713836594 -0.16726114294939656 -0.40368756980186815
-0.23507302352864923 0.4941123691940496 0.04135305942598281 0.22680626784480157 0.2607618215545
0.3373574950276502 -0.7743214495801467 -1.390727121752218 -0.684114445877564 1.2415643033823005
1.1503565360475423 1.1481784502299603 -0.4735842466401864 -0.024605437981121865 -0.6166456802109002
0.20686431151496948 0.3917735773257802 -0.13587123439843324 0.026392553254031833 0.03928518676937658


0.45823993782010364 -0.9116728822487886 -1.4469505809474463 -0.9049398715923799 1.5927910891298325
1.6176862573194273 1.0220046639266316 -0.8633067152159237 -0.35910524904474916 -0.9043427439047976
-0.31057234771574665 0.3414228532575874 0.20979149643239273 0.11119051624516553 -0.10001154347781901
0.09634748440926105 -0.5352345413852333 -1.0107284419778018 -0.5134811714704441 0.97792758382852
0.9754933736487815 0.7831218089543655 -0.2782662863595447 -0.22631370728969205 -0.5404925767703502




0.4122547098676208 0.3858155950355111 -0.16553811137887786 0.39261364949092453 0.3023249692752955
0.13082691324739068 0.6416647286443697 0.5974629125786309 0.3839120596513854 0.2684158197425031
-0.13173809763078334 0.02991133995715519 0.4366868452368534 -0.024692128902461186 -0.2326490388413297
0.22686059977198658 -0.14838261469981032 -0.16101758732787194 -0.1552461397212101 -0.06057739583323346
0.03856159603154802 -0.2164889685309526 0.015204066060317161 0.31195457972911433 -0.3200908491870142


-0.03783761164378418 0.32961411939503305 0.19831064451195876 0.3690502369344804 0.2751608529574239
-0.20181295834786828 -0.5081612527562203 -0.4681461272532832 -0.4798798311161611 -0.29207239865994583
-0.38646844151027904 -0.28406586258553224 0.10310619838495094 0.24606834519704715 -1.0132796590030064
-0.5508290275099064 -0.031060962512996615 -0.729058515103153 -0.29786935916589646 0.02622893785269026
0.2689695989168608 0.02074448555002185 -0.17109316669981084 -0.12187957155872724 0.015463585477959282


0.018477917304610698 -0.061152570350973344 0.37905235769587065 0.5192253374797537 -0.28732306252721573
0.20692780945375186 0.3368674369877332 -0.09305898734975734 -0.12259813754921932 0.01112140949534272
0.08978798082207148 0.039742460682183865 -0.059828338868049016 -0.04004900401708253 -0.2945098564445391
-0.25507177333529896 0.07307191862405117 0.12513146596048103 0.24387058133263798 -0.20078942601347102
-0.059173434179143725 0.11835625176766153 -0.2988180922783924 0.1310858046771122 0.10907518798837368




0.06718027095806425 0.02181857252717924 0.06097571093136367 0.010634813805738021 0.028297255155427026
-0.06812875597114279 0.7360378299654515 0.4832057080703347 0.3730206721477891 -0.3279045619342019
0.003085565909414851 -0.49482035125469825 -0.6979862904762075 0.4834626058062713 0.09930713016902595
-0.2389753034688998 -0.3905198567473927 -0.2727577172463598 -0.498522883677714 -0.9516211712746092
-0.2640368734398351 0.07107857556524833 -0.105213239137798 0.20665737076316104 1.4685905636269891


1.481246472244835 1.3778114593268247 -0.6126853589991791 -0.4615325774618773 -0.7648639102621635
0.535165618257332 0.34497193501797874 0.21485529286886307 0.11243553208529522 -0.024456299789536486
0.18416513675872284 -1.9595398994571354 -2.164090303689495 -1.4471155344028357 0.3501230108588286
0.08462869576116253 0.3523488390402791 0.8774324667018433 0.7852757129115352 0.6413287631721455
-0.061269850788454455 -0.04980230418183453 -0.4309660256508751 1.0662524948115888 1.005177989755383


0.8152842851454111 0.15725293068530863 0.1431841177782625 0.20996933931775658 -1.2141265105711254
-1.2922154002365056 -0.8815471378495715 0.21464317033698616 -0.052485651802561546 0.2941041824579458
-0.24855492123055387 0.17238644023635838 0.1132061919867687 -0.15376706029045487 -0.28590113845477616
-0.5787155848843525 0.7295744448909264 0.7108686479384403 0.46177524012614024 -0.12406472778819974
-0.43198486029412253 -0.06495695533733016 0.13198678811391065 -0.2907778913119982 -0.026775341487024765




-0.1455939725492628 -0.047867259668739094 -0.4489105182274531 -0.43744836633685463 -0.21231417504302869
-0.48918895808531 -0.07151299707406963 -0.024907120498184956 -0.10900245690075407 0.14212542163509995
0.23466750934561573 -0.023779506787914968 0.16224116271333694 0.13720815333511743 -0.04815921760520722
-0.25763532383134624 -0.01017039790435478 -0.32218747484654325 -0.12728705169747379 -0.18405224687491858
-0.5473619263407901 -0.1480533609836939 -0.185775570409381 -0.20035004948415364 0.21625710483235017


0.10487850412993402 0.24924321508146136 0.2098006363457743 0.20822470192117515 0.14321233458982063
0.08890447598122024 0.07877150836347911 0.14165606190795693 0.3253647924705153 0.2581083986671824
0.18302633692393014 -0.003339725040550736 -0.16357210740640507 -0.16409823468388846 -0.15162564631027234
-0.5018058467563934 -0.0055931536505595784 -0.0064738790046561774 -0.011939154604925357 0.24637748703755047
0.2930169097943936 0.2167262605569588 0.26033275157665603 0.2223278161589441 0.28021922535175886


0.5981280357725499 0.37107945849689533 0.18959675923714048 0.46242148804877153 -0.3159606287505996
-0.49333808626679215 -0.17826695620219782 -0.4682899987291989 -0.5810077794726116 -0.17539837981393433
0.0474802505777797 0.15247982479986133 0.25028765850493206 -0.0648650135196606 -0.02570781261154597
0.3241946071092661 -0.388148179513961 -0.3104803165719201 0.19694040566012455 -0.4818753998409764
-0.4775156315653107 0.4251921271228565 -0.30628843118283355 -0.26497979138280187 0.5918029692705761




0.09692582138838811 0.3562200344447377 -0.08065541703419599 0.3157388711010161 0.41147631824869346
0.09043262514689004 0.11463609951621677 0.10265877934264148 -0.10058512001643469 -0.29001422220954703
-0.4262485221238396 -0.07823968399102452 -0.14438102430961616 -0.1475829962380988 0.05861761265714354
0.050561557801854166 0.020975141274070103 -0.23436965270599147 0.08964312499899701 0.2989101634353908
-0.03271544908249013 0.35731026185776316 0.25143890127486274 0.24566852199084152 0.0057271782616621315


-0.15266935288801423 -0.11342618011391992 -0.31054626728622503 -0.45293174623657034 0.18123233674405595
0.20066111625248403 0.08745192953004056 -0.47535356383417016 0.13002925394288228 -0.026202187094239354
-0.13586737069638802 0.22909349927648284 0.1704879411476469 0.27743512637170176 -0.0654559729688221
-0.15097597878050367 0.3371447680384424 -0.47465059994556774 -0.5042675170060646 0.26551347721018526
0.15974280320083423 0.20319344776940032 -0.45073385100158525 0.22858992674816275 0.11513673488918799


-0.33356248934977095 0.24006608437826688 0.10558800586058031 -0.08127197660783016 0.016054465600386553
0.11470251892765393 0.5230852814744696 -0.7284149597827839 -0.3708641637081255 0.32837912511078443
0.15238961974498533 0.12120065872953724 -0.47100548087811334 0.11250924359208087 0.05595737801370398
-0.34489855239836736 0.2923340869263732 0.06780223168167762 -0.0951043460680353 -0.00033988967119548614
0.18337377464240465 0.22426942533732636 -0.5900710595078947 -0.1347202965910766 0.5564555484683864




-0.06250776794002035 0.07286529387990522 -0.4016661919355562 -0.2208843551872713 0.02134810757836907
-0.3450322153241176 -0.019208151394143662 0.12150284459684398 -0.2746976039461602 0.8165533254942764
-0.05991145057938595 -0.44495420243090833 0.5731348795236587 0.002362043906066488 -0.6049907702166327
-0.20406215302199632 0.09702479591078855 0.33477050548240067 -0.2997394874209674 0.459985088300263
0.7183502476369344 -0.1320983399239388 -0.13834400627007337 0.24915483383438436 0.27709239568181876


0.13433585450659982 0.18966218607604424 0.3063885092115444 0.06049336818350675 -0.490262661239774
-0.578294691578661 0.12502938422926013 0.23377391936961317 -0.6538645994257875 0.10310410292195236
0.3495175695451238 -0.9616062012064638 0.04748729149355557 0.5143817088969951 -0.1796807617974712
0.18455941561487466 0.0898918653285045 0.3832645690532744 0.04647114578784081 -0.28612163461944273
-0.4787859948105249 0.1164450530713156 -0.030472903690856097 -0.5910757263190142 0.05806906316185734


0.7159786969377728 -0.7219383875899158 -0.0003097958000894605 0.2975388353507218 -0.27696496130720266
0.02348235528947736 0.25488278693953403 0.19345792704586864 0.21694903274595714 -0.24348130743943697
0.17077499423540873 -0.0856490989310255 0.19673415057796848 -0.4875751339464641 -0.13908656066463293
0.5072990709697367 -0.4108451720483139 -0.4146412069338299 0.5799507108170802 -0.1467056700598374
-0.17255089337917023 0.13733919927908783 0.31549020066101624 0.05370724103807984 -0.04415163145591062




-0.271365471050357 0.03596595118466932 0.3692190903803211 0.08748816992405123 -0.04836822550053027
-0.31758670389458404 0.5518645752507674 0.17938581907250267 -0.24290272890251322 0.6903845002423933
0.09672387491909513 -0.01959826439022153 -0.025305298017280015 -0.08778275913111772 0.1806203228083255
-0.08880912943855676 0.10662093113526032 -0.23999693038108316 0.3598477889952612 -0.24128511759916305
-0.6046285744019853 0.9091115869754959 0.46303735043951205 -0.03793728434474248 0.07457604491603101


-0.06427739778757896 -0.087952963460913 -0.4405029033085386 -0.14294558913825434 -0.006329821283683
0.2392591761791897 -0.4920321548992431 -0.6449557893676722 0.9177736315606096 0.23309397450351876
0.04802863637535035 0.7337883148629304 0.27720590922192595 0.2996267123570155 -0.760723476235622
-0.8346599455975525 -0.29941234589469273 -0.30805542535302194 -0.3320311349732668 0.32668968176353874
0.47550905159827933 -0.13976176315612832 -0.08393250074696418 0.5145365944557642 0.4304723399402128


0.5804759712314329 -0.6556213592678305 -0.5223576947413954 -0.31612064629829995 -0.9314827510701656
-0.7572314107718755 -0.21943907848499233 -0.05187732908882021 0.10292229389741624 0.5546495895608075
0.24071074597553077 -0.04999103754729185 -0.14126973951100916 -0.26622758775837185 -0.33435701118559497
-0.06228227344804332 -0.8839638105756883 -0.1855474623191658 -0.13633652621086745 -0.004601723659653133
0.3354047132965577 0.6644964544112345 -0.05604592107088691 0.27492177205047424 0.4433271871561981




0.00580312871958365 -0.00036709310814981547 -0.060681802228598064 -0.14431184725058024 -0.21460106851149166
-0.3992882454318173 -0.8803156334418668 -0.9043794253034729 -1.280020785420572 0.2605936816329724
0.2823094920637756 -0.289021480381573 0.3118582656714127 -0.04683966683236977 -0.007574638755357081
-0.04680024219699818 0.12002615860155699 0.005485917996972786 -0.16652560411497777 0.18079277155836146
-0.19239225321399167 0.9472384414867819 1.4221551390066403 1.0839491545895092 0.933948257109041


1.2097658369679418 1.1771590921740698 -0.365392161710624 -0.5075385157586169 0.011374777230955348
-0.1359470164897598 0.2969637698733521 0.04109025653927128 0.2146611375532608 0.5108932668787357
0.15709598355405316 0.2877264977662216 0.5253152665047427 0.4867879227374809 -1.237887626680193
-1.103405432805171 -0.8166703663979008 -0.2650603141421506 -0.3952454697207864 -0.04795362296855191
0.032402366490616064 -0.1038474334248409 -0.008850175303672441 -0.10750135757700821 -0.06188011393063094


0.04288647717802048 -0.7614350949536409 -0.8596474707820051 -0.5109884105732354 -0.18302143954931335
-0.34593474039694244 -0.11083077651602845 0.5456038649219551 0.36188647443402755 0.637552953508406
0.16676060260098605 0.008372100588126426 0.016903553781176726 0.2560038126666189 -0.04844948583066877
-0.011201145149954607 0.15503790825164765 -0.21598773434283305 0.054291326277055386 0.43059132773477654
0.2696522361435023 0.2811529108497986 -0.06040181645254377 -0.35992700903091096 -0.28710991260491187




0.12715961018328856 0.11062298672329156 -0.06221453334320441 -0.277323294867502 -0.0014354453538426818
0.3040467242733222 -0.13050894091392148 -0.17316808736197917 0.21258057112751266 -0.042713889274041336
0.07149572884348213 0.2242687948596743 0.10193374164622039 -0.06822952736831406 0.2748105720002425
-0.22649281310108893 -0.01573254046011104 0.28962374822401993 -0.034931494764073596 0.10836069308114256
0.5581419997274756 -0.5463344363692277 0.07283826668939392 0.25566157458328226 -0.5046719130714584


0.013225889293117028 0.05471840629908645 -0.17194509782966813 -0.20628238764026227 -0.1662701871519319
-0.31008706654235996 0.05791977275286136 0.3644506067144542 -0.6860222312815545 -0.33711031066743535
-0.11684456694675313 -0.8769709600146047 -0.5350309264108996 -0.40592374684036797 -0.4282193469105414
-0.17315127867243305 0.19432026542075378 0.05744701419004616 0.09907410291768537 -0.051783557709644705
-0.294403703387648 -0.18745696993945327 -0.05193881864407555 -0.2039841874946801 -0.13083179818533414


-0.28302390202157146 0.20296619188861084 0.162245138305412 0.2569542555200709 0.3006011429714677
0.394904047766123 0.28933349073922565 0.3363661923112368 0.12823143780558033 -0.24248300181425125
0.37880306323704216 -0.12899962962918943 -0.09019802625430814 0.9348421691463342 0.17717729228982115
-0.2584294168078394 0.8678066629269172 0.32697414731463315 -0.42949732631998644 0.7071949760874116
0.10110339211609015 -0.5146944269529116 0.6830733582107354 -0.023102847728455906 -0.38380746146697364




-0.5339045410688394 -0.37013854821296643 0.24149175082785032 -0.32417900166794417 -0.655820059053622
0.0670901360361644 0.4172504446223787 -0.023988305280493876 0.5042659197680954 0.22386586902219352
-0.41208676521203635 -0.18742565250400325 0.16870557361877297 -0.014641964142035866 0.055692184006238474
0.10634949428838127 0.18851838405227989 0.39188466259768007 -0.4207063072451393 -0.691086008703249
0.016462783481094586 0.24221376849275497 -0.06630804235609881 -0.11914313527371041 0.6394884158948421


0.05866854204945622 0.4438837843992519 0.5309281456985663 0.10805868628351963 0.16942758245140477
0.19086233303209305 -0.17304819427449702 0.018646738946199736 -0.2512132613716412 -0.16794606533580023
-0.33806021058953517 -0.42180644150905716 -0.5068523465607526 -0.5744362521767034 -0.22704056456113925
-0.35811302570694714 -0.3072721185231574 -0.2460539261439826 -0.6503103032147975 -0.10389726703990002
0.07786697020208301 0.37849440394249684 0.1579552223443992 0.1828599339142726 0.034956888268581066


-0.01219719988287362 -0.04132091418489979 -0.1605223094417727 -0.3277272431870973 -0.19159524613876228
-0.26817285053537326 -0.454488615011522 -0.28598561624997076 -0.4551335705790275 -0.21043008230842927
0.17725657473718034 0.18139145489706732 -0.09811781950898774 -0.03144128051254098 0.024681934061273347
-0.09106845469436364 -0.27474412735877085 -0.058676178211902526 -0.3591157411464845 0.15610815500398903
-0.023823768991805418 0.18848595678356608 0.24664885883699872 0.02077204931624077 -0.15553182220359651




-0.281824035787153 -0.048458502640817205 0.13299673385677105 -0.4583760493610789 -0.31882918329585375
-0.24210180476968562 -0.37959483005640626 -0.17689488177545992 -0.2828504034652701 -0.02036029958737803
0.060559965628901966 -0.21895962357959106 -0.141574548104236 -0.0405604289987367 0.0836840217185955
0.45325435548790627 0.2562366910195322 0.4415482899240725 0.4338846132393566 0.35273641092039626
0.4629420206819649 -0.3733062872272091 -0.16550201462687253 -0.35287399600360037 -0.3290516557419159


-0.3403023060522897 -0.6705630792851497 -0.23614904511409976 0.02174252003168389 -0.2001405311691911
0.286783268439271 -0.19133472522558106 -0.013641555397341874 0.5133213262307343 0.40367713670035066
0.4275471167292199 0.59829321157285 0.39780552937255176 0.302788923151469 0.02185344718773866
-0.15569372629289718 -0.3501012297681117 0.011929928263272294 -0.1292026740257948 -0.7235489772890964
0.0701237761094777 -0.130311947573628 -0.04150942047703883 -0.103843532429663 0.009049941262333508


0.014436316639969408 0.27242810107573956 0.07001830822656767 0.387190311784608 0.46285136582981184
0.1514936229153376 0.349359762075048 0.38974876293022354 0.22950712404508158 -0.09377476681278497
-0.3162906983304367 -0.2341274732402045 -0.029884870218801547 -0.33675455267833 -0.08849061506938634
0.18410696885047861 -0.22358922620270721 -0.16749567349641184 0.148896233072846 0.010128260971482313
-0.12713528462801257 0.10215968878024771 0.12310348253220268 0.0019003026563953512 0.03081130938622163




-0.3224774042691037 -0.10547704572407386 -0.604441126693054 -0.1894637616522956 -0.2342216516187026 -0.1624313981947647 -0.3860708975983949 -0.20323148698267737 -0.430604666871574 -0.11839868845955796 0.062090242343296985 -0.31426786073873936 -0.24061755061090545 -0.1861591645256586 -1.345600357733644 -0.3081095682008176




0.1893123490092898 0.10643462086047173 0.06098442637670584 0.032368916561373556 0.18525891571052472
0.0632176909220249 0.18207162681027247 -0.10815573905015115 -0.14077848368850437 0.06576571815482386
0.13772123065080377 0.21084547671184325 0.17348590702961006 0.049170898243947304 -0.2504785302326769
-0.08901286045091136 -0.0011431369982850452 0.3068826855325345 0.10144181264395682 0.2658995583509404
0.03034509466774161 0.12470855478072064 -0.10908653496758422 -0.021174270286890444 0.046250033247456836


0.027333533633041914 0.05251021045945352 -0.10901673912681363 -0.17017095719520536 0.20019656055004958
0.04270571894373184 -0.1821805204181128 -0.15093389580526084 0.2429401787977237 0.05742416630336252
-0.006927266145622089 0.10007515109220387 0.07041055929356335 -0.13123889610474118 -0.19218395580802286
0.2113287709181651 -0.013243841120417292 0.007320092096114135 0.37375998835116725 0.02297736222533877
-0.05480158658560147 0.3188266872557493 -0.27183551259003236 0.0329667908227915 0.07811987777368073


0.08600241107404938 0.023684992740971224 0.13233841560958196 0.14703093107772586 -0.3072161452928787
-0.2153341218394632 -0.041462202138512226 -0.013287149592045902 0.17429422332900396 0.33441241501161856
-0.10577773109627836 -0.013469353251425356 0.1353877160548983 -0.1747613578298251 -0.04129019500257519
-0.17627940372233444 -0.09171069550677263 0.061520747299625804 0.09147642877485342 0.023436185248901748
-0.0937555615939906 -0.11569874698144529 -0.26766602765458947 -0.09721414133124043 0.06253706491398367


-0.13460754808987838 -0.14244862131347122 -0.07115060388757048 0.08047642835348692 -0.1179931076150409
-0.1574796206808914 0.2067189432517274 0.15042143047405376 0.05974392565581947 0.2749888458907046
-0.12109815111545284 0.09699934017238353 -0.1417090120240278 0.11116782175368771 -0.07394271963203124
-0.21456436746714735 0.14343916376000154 0.29950917911954356 0.17017851458507108 0.3022175038907294
-0.2663544494978143 -0.2595690791657639 0.11413308904643303 0.06410530106606947 -0.09816142997388501


-0.024188281313681715 -0.20971485853268057 -0.1755612185024076 -0.5279862669089587 0.12384037216426455
-0.08311605925045487 -0.19832265250179704 0.5448158296195064 0.08740678437714434 -0.06374494084717836
0.31039173188728075 -0.4823772937217939 -0.17170679609829106 -0.18151874552690742 -0.11904606157984096
-0.11845074987325735 -0.1220239256317139 0.03235081437263748 -0.1807495294636706 -0.4057201004408374
-0.08424451886092145 0.03505297635961915 -0.21987051523939632 0.3777761719335516 0.0059936358114935535


0.26384270173094554 -0.03919817298753214 -0.3059684403237795 0.01938931588033048 -0.008964293929239671
-0.1289093583629257 0.5008006228930163 -0.17797918331361462 -0.13650481847236529 -0.0976589074952675
-0.1114469897354308 -0.14891298153480784 0.032145510096909066 0.165006716297219 -0.2451512533450143
-0.03444256803369863 0.055195644167105845 -0.20026321217512277 -0.06637480590125609 0.09175073829135745
-0.06377740941109243 -0.1168568345022644 -0.07273462659741671 0.06935103231696557 -0.03625837085812774


0.20920650569475582 -0.17110100782658993 -0.14292941467435655 -0.013501350320067145 0.15408008359061764
-0.17634285945698092 -0.15981343585446464 -0.35368620143651924 -0.16332665406234545 -0.04151165776248733
-0.12907298577640833 0.1115645542105348 0.11042789177701075 -0.0007937568650112133 0.3003212390616969
-0.2684154614349101 0.08457274886927903 -0.2369004050751332 0.2455971191016801 0.1062266835436949
-0.32405292328038354 0.2398100639941333 0.35466919679459546 0.5892462201009097 0.05928751344978442


-0.23985732363314605 -0.19708205571820853 -0.03208077752487792 -0.0633638445196152 0.14245617263616378
-0.22612416407668387 -0.26383808457067454 -0.1513969545712049 -0.801679858521839 0.08167611744898882
-0.029312177386531035 -0.18074745562379682 0.4391413405830807 0.29280710052386294 0.4160658358031371
-0.138440886517078 -0.46830866836564694 0.15314059303590916 0.08895216476728528 -0.044325933940908245
0.6997639684647602 -0.2551196081781834 -0.1867635607560431 -0.08263415696051839 -0.4934593061226949


-0.06344465122247223 -0.04225138029877509 0.163654587721667 -0.0310773594385638 0.04620957135830903
-0.09121522993108216 -0.2260062626819154 -0.37600631680711477 0.029426793359098397 0.15031390739552475
0.029088347386825593 -0.08715290983055948 -0.037355956645333185 -0.0029725870202796257 0.031735316716173294
-0.2580873281529672 -0.0800660374467863 0.02404987241085666 0.03745192424639375 0.20594281244529636
-0.19530430964125045 -0.26216230326942747 -0.24156132922755558 -0.3426712309784425 0.06802628617912593


0.11957420820999597 -0.16931170382394467 -0.02791140689698333 0.1298413015659413 0.08333461251628252
0.1840543643124835 -0.011063859320088642 -0.14522458562199042 0.1032933945961262 -0.06971031814122765
0.24022425196868066 -0.19922629516817555 -0.26615142501012906 -0.17666316343115485 -0.24157622826981737
-0.20364229765932793 -0.013975403007493878 -0.25677995119144625 0.0630439636101974 -0.28987499223957797
0.037404305280581814 -0.09499266762608952 0.0035556715995322284 0.15830514437297286 -0.17898635831494528


-0.14863179773598917 0.09413758016219412 0.2780230238365685 -0.17334616875908235 -0.2659751655160409
-0.023444828463559858 0.0940216055197456 -0.11728498053285911 -0.05281572315440847 0.3292506413015047
-0.3041862748677211 -0.19344156574736882 0.05743535294104074 -0.11614544223114073 -0.14134375908271368
-0.0942038151971114 -0.09175323031204202 -0.2110471077566104 0.1203018887860988 -0.13495847998409843
-0.046215923382251375 -0.1672606029634698 0.13114776747315363 0.22637940935400303 0.0518816622738787


-0.18345699397481688 -0.09472988264812277 -0.16034279805936644 -0.0025405437127388702 -0.07658539863596797
-0.35512214036994716 -0.056178200217216936 0.04502249695281892 0.07447798164532848 0.1495876756901062
-0.03232605192759519 0.023724685022464883 -0.22957819581964894 0.18226734889788546 0.09679347422493172
0.06693723861776395 -0.26705470814680426 0.014916129457695156 0.04952936982358987 0.020677441738015816
-0.12274692561010118 -0.018944422499264264 -0.02587952200893717 0.06929336683385152 0.15206926111257144


-0.3970511879196547 0.09521825913587581 -0.061347047570593484 -0.2490214477602065 0.25741077293169606
-0.006939603672525479 0.043043179415551414 0.013387244705063866 -0.045822737243945255 -0.0546801894482002
-0.10702733506100123 0.021321413264532192 -0.117207727039951 -0.035841083745922056 -0.016375312938682173
0.08616842981902896 -0.3229697289243102 -0.2021877334254828 -0.07188166940286332 -0.1517278489311527
-0.19384948712221328 -0.06260297220707016 -0.05442393889203465 0.2838508317531857 0.07115748533323632


-0.09649995670565115 -0.1232507441507048 0.10704683137225851 0.3382528463225243 -0.057387986040729276
0.11736842253076019 -0.20769486766065715 -0.01663128271383126 -0.21081486303875754 0.2928054976791999
-0.03573185697722998 0.13179757140549347 -0.13882238713556458 -0.014178440385141666 -0.00022824573906895536
0.091668145806757 -0.07864916439682364 -0.012619012062711358 0.4472340066199361 0.10662664165415714
-0.10889283673651724 0.033205684120458524 -0.2994225190229714 -0.15782904389875765 0.007202266951150784


0.18175929462318322 0.15139438467453467 0.40265647462304 -0.05004372617080083 0.12934758495966214
-0.17908376187220357 0.08351386705217774 0.05091161257534131 0.1469768566559953 0.21039698468869814
-0.005784137178229137 -0.1216687458387571 0.0003213637504042072 -0.026395357593135032 0.025961000410379183
-0.03950110247446429 -0.12824440667618514 0.17158462456451712 0.09713549262639147 -0.03606105709626136
-0.06722025463186346 -0.0984269643586618 0.07824141271554144 -0.009799526097448085 0.07142723751503054


0.07337235487279396 -0.08275989340744792 -0.061026010776296456 -0.004707601140956712 -0.03649817035635317
0.013774657587365144 0.014803908187785783 0.01352087609676139 -0.16138540247085792 -0.042834457189146656
0.0550860060576402 -0.009525611984783727 -0.0341750858102586 -0.04422001784726058 0.046492034082946936
-0.1311219528381606 0.03341859470261827 -0.020737466907431813 -0.09032146993222373 -0.17960091498536376
0.19109433959941766 0.06497798283420844 -0.020064838240745442 0.05038093771571593 -0.03661694729300483




0.1302850596037108 0.369323308614776 0.23937931385930875 -0.03382259354097579 0.03407267115695279
0.13914685072414168 -0.03709469273393489 0.235937239801537 0.06944535276796285 0.26887199763769837
-0.20440183360631492 -0.030161324432229866 0.05148719302367972 -0.15302943953651182 0.07709375859243578
-0.05018133408866525 -0.016838827038794895 -0.11766472243580763 0.477973994323554 -0.4056399679314581
-0.07974456210875559 0.045306687640489465 0.07468806781116033 0.04668180749518723 -0.10227397606235852


0.15666763459041716 -0.06798002843762653 -0.15838429858364572 0.07406469147188124 -0.155184791476088
-0.04640690834540943 0.08593388290235435 0.010286534975177765 0.05310416101453388 0.47493303567138917
-0.48657896511556153 0.016762356978744248 -0.09010589648631616 -0.013502978721644956 0.06509648197763912
-0.2207892951252756 -0.1068430510077892 -0.023929775784163214 -0.025849565604035406 0.014818663854122515
-0.023363657470558415 -0.03973874339756514 -0.02694907093557268 -0.0379490860223453 -0.18696217100304446


0.2981171241321592 -0.1827861524906545 -0.051274721433720784 -0.192229620848611 -0.024337498586459175
-0.017168480699681774 -0.1758734087081915 -0.18846087770328385 0.11915684531783624 -0.03939469163516738
-0.013862658523080218 -0.020553120969149186 0.11395624375997093 -0.11413365345189652 0.22228443962669525
0.010130583751158866 0.2881203670658856 0.0692193847743259 -0.13903969854269943 0.012636491856681212
0.04468590893968386 0.09945175313773057 -0.3209351670712937 -0.299177951358516 -0.04024421310510508


0.26842241292195873 -0.02556886889048143 0.1344529169922285 0.11427524022047943 -0.056461950901093336
-0.10142744769951546 0.4510066512274102 -0.1286890605293096 -0.06257928651849556 -0.16705613094023197
0.14795720782710386 -0.17717260628021875 -0.07715131444624283 0.16651886842739594 0.36456422928581944
-0.1895301328569834 -0.03401989428302816 0.020092573625055097 -0.05993518691142635 0.12430331810769304
-0.10269924878070949 -0.19211109052270267 0.0935845501937246 -0.045594403078951865 -0.37599694221829644


0.02874169768279899 0.13548542387645768 0.3481354020356196 -0.09639441574635668 -0.04328004070232948
0.0790812318304991 -0.12769461030020174 -0.0850001095615119 0.16264878976537844 -0.019537097211968123
0.06467227076742171 -0.1429494421195545 -0.23268907330192606 -0.018583522738707604 0.10686613500723303
-0.3212416439242475 0.13471509063485498 0.16124564277216621 0.4930861956935271 0.015914472780703976
0.08129990026659004 -0.05062246490462642 -0.09856361252447292 0.10471909129257687 0.11643896527804266


-0.019957840071780458 0.21708506673504063 0.04472020075109412 -0.3976267514152439 -0.13178822660706319
0.0925349575266801 -0.21500792482633155 0.05197879159179632 -0.2472314797984515 0.29620673907126993
-0.02136806352172251 -0.102893942147786 -0.2934122624210484 -0.08220661716907064 -0.006589010777639448
0.23079106740581723 -0.01302554687439595 0.09752468452309619 0.07680149363044207 -0.16073492229987105
-0.21822703796355625 0.21497032900525379 -0.09896691011224358 -0.014801335764643986 -0.1629781311639551


0.22034330270626476 -0.15080483927182667 -0.18237639999260266 -0.30705844328823917 0.1107398823139442
-0.0015276658936398458 0.05683053061349581 0.20719649096064294 -0.04259675850309935 0.20084074413499145
-0.04271459006810704 0.05773413825543805 -0.3795604653937734 -0.0020061330347515114 -0.07472457707748674
-0.06791980231411214 -0.04306646065570896 -0.12673028312748896 -0.026184026512905457 0.334775041503297
0.1497005638231062 -0.12347937427586361 0.08598962162813274 0.22204437044417877 -0.15688068095221216


0.23066864212522667 -0.17358384329611987 0.21610278236971117 -0.190274907417894 -0.3257556827609387
-0.060102161417851296 -0.0952883325567732 -0.27711513211465705 -0.4215726820995498 -0.018306791370576565
-0.05142182412382278 -0.026306257439018398 -0.06819112686505613 -0.007076474115316998 0.020058306906718785
-0.03735589132084483 -0.19503767988163273 -0.16874073394671 0.21834218586402845 -0.05317891533300402
-0.18094096012126687 0.22878603312611448 0.042965740685020584 -0.08673024981275776 -0.20362998016028064


-0.0012517672821551692 -0.02455280478980314 -0.07180565953351739 0.0356138884866496 -0.06446612962150791
-0.030962028960101046 0.1623747185523101 -0.018447891796805567 -0.25538267326013653 -0.03926203337793769
-0.03761807032223491 0.18075431392169508 0.10789808114668499 -0.24089938689074586 0.10225935734753518
0.010126960811778633 0.0264694036868707 -0.1746239954757308 -0.1575752669137247 -0.03408810079088694
-0.13017524623800392 -0.04376722208643636 0.2681182206587895 0.043435047579323545 -0.08620891571882146


-0.31957280812251443 -0.02714321217365844 0.1375084335564486 -0.11387564891828698 -0.09109544492671583
0.3078174398670292 0.084406769974522 -0.21823580708883916 -0.1519812755466884 0.19481309989250134
0.0761237689754033 -0.06100129161444978 0.21769925363243686 0.0499121529017682 -0.10058940046372876
0.08878424950627972 -0.10588995313459239 0.11712737505728295 -0.026237577270539512 -0.10255470355526969
-0.11731776220249017 0.09533102541484091 0.16945146432840083 -0.05416154879013372 0.05609332723923798


0.17240951122450676 -0.06782281867997128 0.32759995851603047 0.23712611415579005 -0.08617018142035231
0.24270424672792093 -0.08530275573427294 0.011906605678705402 0.0444187485666142 -0.20455902039046686
-0.13451154637323295 -0.1439890009720874 -0.25923401363751286 -0.21286733038530514 -0.0598988728473267
-0.0714559372091051 -0.028485481256477665 -0.11109734099985047 0.027156297985100497 0.09404846951633614
-0.1324647857747848 -0.021596401712843605 -0.1764918596979979 0.01648103705253259 0.03858935021420717


-0.3166182665389245 -0.008441621368311452 -0.29294290818899876 -0.2755172241217868 -0.2504716830293891
0.04382024208322988 -0.08355155682102752 0.010872262071612673 -0.15713930045236477 -0.13947115740503932
-0.06301211960841727 -0.1993377432212964 -0.10373530528110048 -0.18694731667655645 -0.07885494003897778
-0.046769259763389956 -0.1978089586894332 0.09199143907294098 -0.05791984218478482 0.01791678456765697
-0.09954440775251763 -0.005048920537289668 -0.14845521280464977 0.03634599785217917 -0.15320632143226037


-0.2510971627916587 -0.028908273827059988 -0.11917864573503567 -0.0592060394193447 -0.008157492146847498
-0.32961288910919406 -0.15682330558688976 -0.07033405705366731 -0.092341084981604 -0.09470240459921181
0.0214451959487607 0.1108053587714777 -0.06099441557684325 -0.2855385749224953 0.21226772254397297
-0.18115213483213055 -0.13011518611385955 -0.11652778300437117 -0.15175430816207755 0.001437884679929751
0.007621639482424337 -0.3646386739891623 0.06667628673438297 0.019952783385262594 -0.09720590951210908


-0.2916889445754921 0.20989140839164186 0.16457902818647988 -0.04546415876565 -0.09431263489801134
0.04837668562436692 -0.017151425572637016 0.1496919502891116 0.14818059481399148 -0.029804422311990698
0.03778007730154233 0.06849253038928052 -0.3305023824931527 0.054325041492494654 -0.1821651143726289
-0.0814684117185326 -0.196011330232079 0.05240187778182286 0.0001531227584149675 0.03532554544995266
-0.07423169253803137 0.07069470672453185 -0.12500347218582844 -0.10467731882879637 -0.06530573516634866


-0.17305162489281473 -0.06256974369127546 0.0832558798337921 -0.31688539310551994 -0.016225221206277483
-0.1302668264017117 0.017560620629072293 -0.12258325434206299 -0.02076534824253899 -0.004814587864134015
0.07369306010223381 -0.07188222669227573 0.08031249202371218 -0.14808906716339545 -0.18726484349205916
0.04282537083892486 -0.19049989216240298 0.02523250174489288 -0.04909317818248391 -0.13225217452070404
-0.03543992621567776 -0.03450404242320456 0.10342644027924768 -0.08719339287391428 -0.18712330219376622


-0.1332987996706868 0.21861336440543977 -0.2294991665158529 0.16849296739753525 -0.27666680411361533
-0.18830836955146424 0.06586317684690862 -0.15569779862888783 -0.014751107065381458 0.20208655449405763
0.03885757353225278 -0.04661704910204047 -0.09047446616922285 0.01980689527246997 -0.08020638182780455
-0.05551464498142264 -0.15509345033626137 0.22553340449428638 -0.24343066382898598 0.28252039009415547
-0.34651516073287625 -0.10285796705293382 0.08663664003357487 -0.12039689661185657 -0.14208916042814043




0.18239651187800088 -0.13282500784852896 0.19962522654306283 -0.05042332427766003 0.11002752420170174
-0.02574140415933331 -0.11782950347367346 -0.07600275520028663 -0.12327058029289438 -0.29486683513479367
-0.09895244294120147 0.1632384608631767 -0.07145232351208816 0.11559304849086798 0.019934055092683808
-0.042533883749594756 -0.10564941503961667 -0.3152359332875703 0.14790551547881295 -0.14422715580377177
0.16434910543066816 -0.1303122802262301 -0.0642796596902845 -0.20738626856443879 -0.3302498497652372


-0.21569607828972065 0.0008879678369106683 -0.22098371299776282 0.08665987445044264 0.14865975138360146
-0.2396738507207389 0.05859124178731455 -0.2151616998979862 -0.09252642149333512 0.13388057959023902
-0.20213002428100854 0.2007007331155982 -0.20372755687666844 -0.10519408161623836 0.029799945702834178
-0.16531370173221951 0.02665946930856482 -0.04196473716177604 -0.33670591890872265 0.1543592924527139
-0.17984538291104882 -0.13552745565629892 0.0131464718537381 0.07267270988014188 0.24630160501698076


0.007952530009994808 -0.0388007722503568 0.005845966395237972 0.09478840575091457 -0.08522413591338338
0.18474283144001902 -0.23396493260482626 0.047063216845451734 -0.042538475929134185 0.11771922318247323
0.002280520017418984 -0.0375320326300288 0.17204036531062086 0.012715039439416449 0.003587715918600197
0.21040453570560633 0.0008352895888491472 0.022569134714912717 0.05643212832431585 0.20440400431067623
0.24664063339982556 -0.23226661320794917 -0.19204498688900704 -0.09071130506496314 0.06115652113731722


0.01128120433861466 -0.0075481743333909645 -0.10733975537260936 0.33454979322649014 0.0016574318869314864
0.2689753896737792 0.2725979304226133 0.13483250093398663 -0.010212656788898882 -0.20400093443483527
-0.11559588291297186 -0.0814811051967987 0.011332271614305686 0.12191786936887887 -0.018888332973528026
-0.25509775006629226 0.24012429206517438 0.006346752185318698 0.12564908074727743 0.08389356778353481
0.1448899607231977 -0.14038468916295851 -0.022384049892387688 -0.04645997123897543 -0.08042954436751261


-0.061469588915032444 0.025689100990385093 0.19924405674089343 0.25030491420762824 -0.24345734438293873
-0.4016885318705639 -0.02352996895740036 0.4384870443353265 0.10671896923323786 0.42473111549660114
0.17383898605700035 -0.10293315920597323 -0.42318524333922064 -0.010122610555641435 0.05830085664142596
-0.1563251105201152 0.27721704296567606 -0.09546355478620162 -0.07791184620705584 0.13638863268932597
-0.09123300475048636 -0.003829453083332778 -0.1948274348834679 -0.08541463431316566 0.1584294308324655


-0.009687346862049358 -0.2764632718983555 0.04250506499883833 -0.17393637480480972 -0.11690921435944873
0.13978324549206503 -0.1165462324790592 0.22215979661880805 -0.1699071163379784 -0.29790575453217755
0.043376881116624265 -0.17569397473287987 0.3480831000077895 -0.2561602562930588 -0.15059204266334608
-0.0810549391609575 -0.09075185523192515 -0.3475376363511616 0.02730381656551825 -0.14189184587880152
0.11359478084610551 0.1890867939199923 0.11211045597301027 0.1672300622112066 -0.04728503477817419


-0.2026836974923069 -0.3034844231183248 0.059786560107983305 -0.01527439160452062 -0.14153166031037392
-0.26603434876737503 0.10739892316382041 0.04015177643561346 0.2733899930613393 -0.26188661548247555
0.06394782112471628 0.14252307925227614 -0.0655428857067674 0.001440743098432066 -0.3686584728166923
-0.06855498964201519 0.049109000265501454 0.10754441809597785 0.011170586546320301 0.24368246747459082
-0.13514899250648052 0.25456395511958696 -0.23166718158894445 -0.005037836253357457 0.103226900949545


-0.018048316567195903 -0.3158782932644064 -0.1645930718453439 -0.2997942233280731 -0.037455605985314534
-0.6791613692186672 -0.013443364760653966 0.4303728783596558 0.042435733876882015 0.013600102340655179
0.013453810922775282 0.12545859925327624 0.595791790615842 0.1422550316556216 0.1121746241803025
0.39982792050003974 0.11070115063342398 -0.13051208662513694 0.015259848769265004 -0.38662316001111346
-0.007621184010111586 0.18063890273118202 0.16487809977459655 -0.02804814898486564 0.642549672015476


-0.07668129627111007 -0.0532518083020136 0.04619595906566585 0.04181965353345707 -0.034332610769238374
-0.09710081649688272 0.43151842301157073 0.1735576714932587 -0.25846180006825864 -0.17521156242568947
0.11538266598555921 0.34900293419795686 0.2638272200412985 -0.04760423783958169 -0.1470266852834315
0.0009892753904207744 -0.0746742116676213 0.021189563669017863 -0.1113383915549017 -0.06684529490921641
-0.3131794649433054 -0.41986305422867654 -0.19834982687345398 -0.22871549166449953 -0.13975617607313756


-0.14668350548941636 0.11956924121739254 0.06477037439581541 0.46264589507725745 -0.04558757270266549
-0.2662300387836338 -0.16478030014415412 -0.041440878711878716 0.09070383763067226 -0.21352276373617518
-0.3501381059060427 0.08209037726336835 0.02010943728603616 -0.3466218522209595 -0.04892519194607515
-0.011431993635422279 0.1351549548795529 0.18924022726829615 -0.10096657130317985 -0.2511247000554497
0.1571123710073614 -0.1798839002021606 0.288821526368967 0.18356849384338642 -0.1829811098849281


0.08612455006124684 0.10711484607841322 0.2083267667414883 -0.1795464204404797 -0.2395500259103712
-0.11468612348440238 -0.5134333617118974 -0.15264511658064928 -0.2698268075856386 -0.07372653740201596
-0.5223748869080495 0.21986037668856384 -0.38500366022098176 0.2916042462484331 -0.12093165659741464
0.21662827127606896 -0.09067516089167474 0.07415125571609851 -0.19532528018537343 -0.15298638085541502
-0.3638094078349638 -0.0033457138397894 -0.19872151811983674 0.030097399293544835 -0.6345522465582599


-0.24846111936935317 -0.4581693707751683 0.006373347358819614 -0.3179855958909262 0.0229722425876368
0.3453522012643796 0.122841980816279 0.10708138569082129 -0.17888204292689405 -0.2848061174017517
-0.1940998379491795 0.3485601551460604 0.03650065757834483 -0.14081277477203327 -0.13728691468584045
-0.18205801546470904 0.030269938044198207 -0.21679197965346209 0.07080214385393145 -0.1395441455498291
-0.09941206387352812 -0.15324989564453903 -0.16156934188109154 0.04562294211895279 0.1708662787376915


-0.1250855671354073 -0.02999777459276332 0.43582934421822245 -0.1283307718660882 -0.1328364456771899
-0.1395337069880733 0.36041968386458073 -5.055936635608533e-05 0.14094010987113686 0.0624689087735334
-0.19858847909489924 -0.17297010265965743 0.0653897799407137 -0.02654158156245156 -0.12939839677395054
0.009020272120161339 0.31762197128459363 0.07140713608541294 -0.33997406029828015 0.02145795104859098
-0.04953031233418406 0.024384810718941368 -0.051269758223595266 0.20788575183942823 0.2394318669252787


-0.009382717098005623 0.050902211232888496 0.21782611755873868 -0.029646583077822204 -0.144830207392867
0.3081805788922855 -0.12065367015495189 0.09007318407510127 0.24809314082778378 0.04877053822145557
0.1151427015525923 -0.24641930387890368 0.400568283975696 -0.14702582323554306 -0.004105766347445447
-0.1465003424856821 0.005350940735249861 -0.43533466931768705 0.1683114620544139 0.04832743353832532
-0.13638810036509966 -0.10398210434946259 -0.010602098959222612 -0.22143424289853528 -0.059746140605384614


-0.30211796442039235 -0.07785953729068004 -0.2173949023830559 0.087523427639679 -0.4142121327220294
0.18490437461163703 -0.6898018777622459 0.20173359708245284 -0.42509068181116494 -0.02397771145836297
0.20064363669116939 0.16650745239597609 -0.263176674650956 0.21406040005191987 -0.36984025604585297
0.004098487060792121 -0.14339324533056858 -0.2514177731578514 0.03233692300737464 -0.02982300143033078
-0.26728085681197955 0.21018345561111482 -0.29922121899535176 0.011852094325708818 -0.04968628893915633


0.027733320766124607 -0.05447514038675839 -0.16338528255868073 0.0517503956937515 -0.1237045037994903
-0.1104066579392491 0.025415078502201188 0.5475772410518451 -0.04890678360325701 0.32669410575607716
-0.050932397399175315 0.20581874994745974 -0.07922991860185785 0.2114717158590138 -0.050899990467619574
0.06770715967509501 0.07505107857390204 -0.19694445725190707 0.0009123639079897873 0.13352571136403282
0.042107144657792396 0.14815738487284666 -0.13673446490479813 -0.20468210065248732 0.15327814564329142




-0.0018110090101139428 0.08715091408426372 0.2458174336573219 -0.09751380782521477 0.3351149057379402
0.13402555774222685 0.17255053383259675 -0.01603319461276173 0.04504252956360746 0.04686351421301189
-0.046623413540476645 0.2257018898563335 0.006612104814466188 -0.015410307414603641 -0.12524864189584137
0.11864479458215492 -0.23994249434203824 -0.15947173697949416 0.2693369884582591 0.07513809629360926
-0.030945361425502638 0.1291354763842872 -0.08416741271072156 0.17020728749305666 -0.07361310201630213


0.20344920778236658 -0.17655461768630173 -0.015560852498444655 0.07974171143432722 0.07049965392640312
-0.5276528689303334 -0.15036138707417693 -0.13279480586920323 0.20554620681170005 -0.25450504762472503
-0.29004348286467396 -0.490547249641145 -0.00028053991571476205 0.005362488549256882 0.19382620008754725
0.2887370998392286 -0.018173975430050938 0.1344681685114782 -0.38566152688692046 -0.0803510556297337
-0.09975478808525826 -0.06916596014171367 -0.0634590651180982 -0.05780283864127583 0.3681975294499749


-0.10955208435928694 -0.15660159100451737 -0.07468477762489079 0.1483271489799672 0.22624678761697106
0.1911490548819645 -0.014884664637587973 -0.11659777369053624 0.44114149833277866 -0.18035813864037295
0.04946001009081452 0.08983453672631095 0.12595549944389733 0.1802252241726634 0.04055350807837421
-0.006451717016731534 0.43665764697518417 0.035256733336365136 0.2375616611643265 0.007918293111530597
0.09071783570778844 0.04457026015856948 -0.06401164577319422 0.01135419981650485 0.06054160901887983


0.05199241798766022 0.04187697579250263 0.07497363159389307 -0.034702800677903385 0.09114954364172047
-0.028630242215627297 0.11480835603932837 -0.1884766869953758 -0.31527226897101623 -0.18790793939979414
0.15612438688175242 0.12372577347872257 0.057565986195804636 0.31191065391922795 0.15210367098047778
-0.22491456530022008 0.2623361982478287 -0.08779102635211163 -0.02002599466848304 0.3880610614098941
0.01521963953552123 -0.31235581623402026 -0.12472380646921256 -0.14432542572039636 0.044384915204209154


0.3044398989599422 0.44911243082022234 -0.14290381627535972 0.04366734343519831 -0.03607633579602484
0.10209522866001147 -0.03604955324029665 0.2754905114081939 0.07606590814782443 -0.2795982410884718
-0.10973664883629937 0.05547208771862722 -0.4484253986300526 0.005249379311251718 -0.04433503994275873
0.46935306658742953 0.028591368145602414 0.45288666247265214 -0.3074335281027908 0.4188689856287993
-0.045638568831050386 -0.0026721712518582657 -0.09133509158581742 0.36809229508064306 -0.06274411024053783


-0.1417827716487195 -0.6262691645688363 -0.4770244920781468 -0.06177950411669691 0.18621945798969622
-0.03161834399573473 -0.06698619011893985 -0.12387683373808837 0.1871970565867779 -0.16946355846991967
0.18637853366862273 0.07226977255795977 0.032006187963746095 0.009509478779467099 0.12332982858266145
-0.1279510450414427 0.0336123535356315 0.20748486209251196 -0.21323022969792318 -0.09544108400711403
0.04016223140677133 0.012973247457809966 0.01463367922160544 -0.04732723177812751 0.137080052490343


-0.00778672690198106 0.1082808010338565 -0.09069428437861646 -0.08826136760569997 -0.11466175157689407
0.06094023159339828 0.03603459415753906 0.175179525824274 -0.06615472573485295 -0.08624482951301808
0.12736151630934509 -0.016621379824508346 -0.1772452134959928 0.1153380640624899 0.04217137137965601
-0.3515114105852945 0.21968170178981042 0.23215811480890583 -0.0766928545852786 0.1462654124010238
0.04431749955729013 -0.1643777267423749 -0.1634946519664802 -0.2805914037026079 -0.05172855618529868


0.23877338657112332 -0.05806074916790277 0.017199773202905368 -0.1265687309002677 -0.0863543529671962
-0.4538026340252718 -0.508437422187257 -0.00874352963545177 0.36788785314463696 0.1173117200228172
0.11609570581736853 -0.06582447287928807 -0.0648485620470083 -0.05859490716885192 -0.02422952523090153
0.6197358337152011 0.40453102519969875 0.016900238623923543 -0.14097623332255577 -0.09582066356209824
0.18962796571326693 -0.015744466898573097 -0.2825605770559129 -0.05578641465007699 0.23631634083234043


-0.22462144126902944 -0.08754152833378528 -0.21389190226451518 -0.02437117693206101 0.13354167554326665
0.3887556260845784 -0.04516862995904757 -0.023540666261451924 0.1822460351949795 0.1594029961806687
-0.1177549830368893 0.4937598312916954 -0.26363883207207983 -0.21504902904176412 -0.1084956339992926
0.0010796512653076943 0.05397298991974257 -0.06453266244631338 -0.232148120569105 0.05903256709440364
0.01070340998125626 0.320793491420257 0.07802169059902798 -0.40431706934803463 0.11924128674393868


-0.10916641052032434 -0.12668314876375752 -0.011344015772464265 -0.28999412771425703 0.01612116500042082
-0.05978891819078384 -0.24981783249725428 0.07390644484035011 -0.08673147520878695 -0.08102146551313276
-6.270144095263074e-05 0.04548441691603 -0.13831522488642076 -0.010510497060394504 -0.1380568422023156
0.11759358829042912 -0.15515055038939723 0.14092599072468853 -0.08719871579443941 0.23889097348864582
-0.2869269979203123 0.05908562158361228 -0.2702433882898921 -0.02339322262772959 -0.2524661389831106


0.07969019180952433 -0.1775216906835999 -0.10943521680433117 0.14442160023366005 -0.10186358069386613
0.09229247178952923 0.08897286576423337 -0.35717433777258023 0.05656291039696853 -0.41535681724549145
0.09810135613850748 -0.8567341113531293 -0.007408757237421969 -0.5149400597286558 0.05219967192553132
-0.31868574348576256 0.10037037621524604 -0.2443789563092596 -0.13083573735745346 0.03900132530777147
-0.020711165400940288 0.1691179547297493 0.2714064740717291 -0.3648598719078917 0.04545633165136602


-0.5089089511209435 -0.10672563348555611 -0.6697609590293894 -0.043158630630490115 -0.3267561698286295
0.20831757941378873 -0.03367461612197351 -0.09278520801476743 -0.15312625802467 0.05076166538747743
-0.03217016460873871 0.08294772057760243 0.3006531158016478 0.2032894370818318 -0.2963776882722738
0.02506613580306332 -0.42834279054447555 -0.11969149631550598 -0.5023684087734103 0.1608135793088977
-0.1545802062798089 0.04307477621985406 -0.0774761244177399 -0.022429008535392 -0.03477599901874935


-0.03588096589965448 -0.04717410645439115 0.019123537758978758 0.0697823457388165 -0.03557861416821869
-0.04133972196376963 0.04142359873652449 -0.25332682401816 0.1772844354044584 -0.1539934964051877
0.06558343206587053 -0.05528787185515168 0.09716090200604574 0.018593387772987212 -0.08756701523830514
0.05073647606090921 -0.1610821075421194 -0.19711364207535215 0.17172392111815507 -0.0007331405822176714
0.22503041829619072 -0.16777515827330713 0.016189005524346146 0.004192452853399332 -0.08964029184913855


0.4009776817418083 0.1482182704141412 0.20319732097459264 -0.002996687995023619 -0.18105627154966022
0.19192099385140912 -0.05252775854854779 0.13438790604420012 0.1760355523936321 0.050627359345657694
0.14951552467728565 0.06506866635347727 -0.26832222552348944 -0.022084884841952226 0.06665126542211627
-0.0187675143259367 -0.30245365742835817 0.028048041605708018 -0.20376516865052638 0.10667683721007189
-0.2068323514115866 0.20346106385350796 -0.24908613629460227 -0.24540019826751022 0.0983368173027659


-0.12431210780515006 0.035102567035346775 0.07476903403270721 -0.2170250605629633 0.1503868440494228
-0.5419988373381536 0.09954277789870525 -0.25745364141700167 0.13916067140927396 -0.20488552379381253
-0.02316057502633104 -0.3133740782415878 0.07680726105388873 -0.1604954108935879 0.05876937325886554
0.11490494769050758 -0.2076450823660451 0.05231885309135972 -0.07735482399403718 -0.19987487937780848
0.09139681483286409 -0.47632138408140196 0.07201045811199501 -0.054531238687992124 0.01123824137778247


-0.2661161632478374 -0.13761948379116407 -0.28765021216905734 -0.032178454864615715 -0.20697542795161233
-0.017210141447450852 0.18040052255033262 -0.11948669133392407 0.012793652290024904 -0.030087858885794568
-0.08472587803090129 0.15119551116869864 -0.5463068748567168 0.18973224128966812 0.05502522487034909
0.06366215655214467 -0.3025949830175952 -0.04585574799617823 -0.03016204571801114 -0.07132895109943521
0.08007059419555296 -0.12162360827791417 0.006915432483750152 -0.0960932973234743 0.23514350878574633




0.11331583358630101 -0.09329551440876607 0.1900412485087362 0.10160861120726741 0.10192474120332208
-0.26611533847116287 0.08448644511227235 -0.008477118236301128 -0.017103549205705507 -0.24203485264110391
-0.07398577670467626 -0.18311153243375322 0.20503383688714513 0.5392906642852726 0.21949851955640262
0.08150234233325683 0.09764650265639929 -0.3643660776416161 0.11844747935360984 -0.14072382991837412
0.14552085033184028 -0.424404993650764 0.08508991646769178 -0.11546170879862094 -0.1847282142883146


-0.3865538068282858 -0.12191598006963732 -0.10377251188398326 0.15751548923816355 0.5251856495982764
0.2705558226984581 0.1315201376776499 0.23255795699650592 0.005795797232593508 0.19779014416266477
-0.3252654289821617 0.20869011766684234 0.06602481792835799 0.023988705619030715 -0.04511473945271563
0.04992663142037699 0.02647840945824216 0.15088233194458048 -0.11546326048333365 0.14591887012331264
0.013835393518827666 -0.04999423194227077 0.29444258978283666 0.05952725792868451 0.060218305633820524


0.1773885517444706 -0.2590250899865154 0.08080528218383154 -0.1785771302873879 -0.01666516587944756
-0.04441118564192971 -0.03044236326713751 -0.20736325891314528 0.0390880431278083 -0.21897824887625092
0.0006689403505088428 -0.25148998688362006 -0.22108051880050633 0.20885029290247858 0.15775113544472202
0.10039233617656418 0.07951297607139579 -0.004886698303251064 -0.09057725844648767 0.05428109373315422
0.1869559803899794 -0.044138661709506095 0.03608718811471187 -0.06855468930758123 -0.12791964626403832


-0.17198168236721076 0.028120074560192217 -0.08334359400702224 0.12188963980515903 -0.18004958249145026
0.28502618867800106 0.23002228701624766 0.08771913511775699 0.00625845306216593 0.0033112072664132
-0.2704506308186486 -0.11001802712668263 -0.35563655894988705 -0.19455318517931028 -0.2589125798790021
-0.02719873873102117 -0.1010075902444553 0.2078714063674444 0.3210368558410673 -0.0711609345565488
-0.3896081329059653 -0.04742701452636077 -0.27573788267217575 0.06710842886621878 -0.13948069973888363


0.1074363011545094 -0.40190113132196437 -0.06323924878000041 -0.2018010922996684 -0.10893345211093021
-0.3161915749672586 0.10184409547743972 -0.29132838041699116 0.19357086577944627 0.21205427513363426
-0.07739034251781275 -0.30444125185301923 0.03454341549826152 -0.016165261717212963 0.034452294747526105
-0.16102615216322488 0.18768173788056178 -0.20146277290174006 0.11112381746348747 0.01829233294866181
0.1378451185747925 -0.01765569249767866 0.10980099650823887 -0.1902483605607176 0.07911559573392386


0.04806071357391813 0.12222450644134629 -0.10660364610909409 -0.08719757967345726 -0.19111473198566603
-0.04393125469873183 -0.392364011985084 0.10030416245816944 -0.33345738981247663 0.12200899583947204
0.0716062268285205 -0.026561951761907645 0.1576350058221477 0.13749731822250152 -0.3979327334615727
-0.3124535954156254 0.026225604411608015 -0.18089379226519792 0.13082767475371546 -0.05745377770508009
0.11151873030002353 -0.07237262200696296 -0.11910671894021117 -0.13912154937372845 -0.24347655810220512


0.08725929751809065 0.23902510813830652 0.17247347642033714 0.04175190391739669 -0.061219780429813755
-0.3884750248093454 -0.13934263850672104 -0.2824593101762063 0.07152046080843637 0.11022549219122246
0.1449550465014355 0.45538691879660054 -0.10596010882559721 0.055300613898548026 -0.15020126963178113
-0.07110909925098499 0.08397662054135005 -0.35523684980329173 -0.029674239422296998 -0.07647740185549423
-0.19721953688885713 -0.014461388741003025 0.046521397650909346 0.06241292246693969 -0.1718668248182839


-0.18981554305862802 -0.05778570520115947 -0.1503136990882446 -0.0451320957097469 0.3849054025039365
-0.183879370874945 -0.07266932773105715 -0.07913158715797954 -0.2657972182713756 -0.07894452503150876
-0.27331718355586426 -0.04750927903950617 -0.15765467643064418 0.07431050325153005 0.10759033795565175
-0.07177709548594483 0.05953707911379877 0.16499207952795375 0.05125943361525805 0.02952734117086869
0.13763064774358674 -0.07864259024149098 -0.03861918766414713 0.011112838726573218 0.044657067127805046


0.21250708074293825 0.22722698621144488 -0.005789891266147599 -0.07092120706483154 -0.004432084074754379
0.0790391746951093 -0.14182152994683245 0.510474944842457 -0.05984448055066843 0.020414138381744606
0.0434400722464578 -0.1161230256538129 -0.10769075075483467 -0.1807571966586589 0.046124149617399905
0.05323536486600717 0.16712050137227108 0.16980414064160396 0.056739979330280466 -0.029965993063955323
-0.3361521252786768 -0.04662725373005093 -0.004080685818737701 0.19277757554450337 0.00024117712525712927


0.12111726316957559 -0.22021342012234324 -0.09810531886413991 -0.14781173002345313 -0.09088140521288914
-0.04942846647619769 0.1083240385526124 -0.035310988069858204 0.40030836039013407 -0.0336115192451118
-0.05035502098227464 -0.3786242548502105 -0.27482985306015395 0.11508987048113285 0.07837239050142672
-0.22781158587359748 0.2296835451606885 -0.2393189602901942 0.12965366684634036 -0.1380012664146879
-0.016139136976940208 -0.2483427841425415 -0.11782428156695293 -0.10036300425072359 0.057018602353845156


-0.2284451757631967 0.3604170969813596 0.07896196289640436 -0.04488740152165449 -0.0913660697459539
-0.03718715631397305 -0.20565551754161637 -0.295320403514492 -0.3101785989637283 0.22635183347992252
-0.30894787660200207 -0.08756969517566542 -0.15535458991660153 -0.06560133694229048 -0.2822543756431462
-0.20927697893865826 -0.18057436052139864 0.24755861502262813 -0.278874246470504 0.11097063244669622
0.15593070532009148 0.06017371905558699 -0.09827489199877229 0.05828332154815888 -0.10197024940936031


-0.03593861328463781 -0.2122878479673366 -0.06587342848735782 0.02041632700237086 0.17045012821105437
-0.3914766658966335 0.2675040850212186 -0.25575002562832705 0.2970214454943928 -0.4506909231970574
-0.05403325697475763 0.08066313224645398 0.07598930397365652 -0.09377470543354359 -0.029610365892737134
-0.056946981948439904 0.2822085403706149 -0.2905870082685329 -0.06784167005754091 -0.07935804587541463
-0.02637970557332702 -0.3594228602377642 0.14914256539059859 -0.2073542820434628 0.10657394461476571


-0.341979688221707 -0.3068731894265435 -0.009382639625814468 -0.17082932218093339 -0.05388664812443722
0.04953887867164436 -0.12263968032929357 0.00012179040049296915 -0.16105022289258542 0.010527082596428273
-0.17758204221243257 -0.04444976019361243 -0.3255898158547579 0.34250532412263957 -0.1676062009499754
0.24675696506806885 -0.243264703157145 -0.05517469265294901 -0.019778538544818973 -0.19512465740958335
-0.34648938050407124 0.1374303045158646 -0.2767360977566779 0.23648870737879604 -0.1723774672224345


0.1651987844767542 -0.07788915357767559 0.017739317356143102 0.015475340852096292 0.15150937826195257
0.008770913748118047 0.3107497281436275 -0.2906822084292166 -0.16733116023719638 0.05163665142559526
-0.154280140834432 -0.15808980581566387 -0.13574907684567228 -0.25213127574458627 0.023851672368007063
-0.28941992041575115 0.14220148535190855 0.05723586046370784 0.12782055887107394 -0.17897152096095797
-0.17022246605892902 0.11831218839057084 0.38097875638901707 0.021603296846470218 0.4687862249753022


-0.018015800231203586 0.1808672472034363 -0.1658329928094848 -0.022896633311551205 -0.17148354691166515
0.0015449293819973233 -0.1520480766029838 0.10129497878915508 -0.028996868260634873 0.15252514919234336
-0.15066733431265622 0.04633551405950663 0.03034266117927986 0.28998126016211073 -0.14047490774949797
0.11999848837728297 -0.13882531969250494 0.12033339799242151 -0.17328678867450914 -0.031199955159143568
-0.05796734715903498 0.14112667581414776 -0.17364400369547556 0.15958144872167537 -0.08652998287526578


0.054053903789231465 -0.0609595275113865 -0.029466063513258395 -0.040245929902992826 0.13674336849348315
-0.1402439841063913 -0.361312696096212 -0.14911370559241355 0.0913459846101614 -0.09718220683677868
0.10318606655435296 0.023516922276009752 0.23193696188339685 0.13835832036104678 -0.02761096669940485
-0.13919707552809252 0.14039440865425795 0.0157990215016481 0.07122965622344185 -0.0499445671206272
0.05902577859683468 -0.43128111578572514 -0.20424736017733794 -0.07793674381166203 -0.22658436512383245




0.18083216453985587 0.15406428720785847 0.18945677298598865 0.05712572024608837 -0.19108916237954013
-0.18908499318049765 0.17690094892686203 -0.09543204182136895 0.014458297743458564 -0.18628518202208086
0.32372366355604776 0.21584767301575827 0.02697499157126804 -0.14122523122763836 0.17003826686229984
-0.3697297973744862 -0.29458440580697787 0.0390965915454209 -0.09970196482710822 0.3578764272317924
-0.26709658139147263 -0.1929504360833278 -0.12120573864327426 0.07423543531833346 -0.041574835308299175


0.15475865445791032 -0.05144618080583196 -0.1642731626972929 -0.4118348514401273 -0.04649922689476951
-0.09108401830704814 0.08878694433711304 -0.0724809895482926 -0.02573613011992685 0.009523554137730601
0.0866566554146593 -0.15910552345945195 -0.13190461605920784 -0.34787591110280824 0.18406713350843787
0.2444547617696039 0.1576975503410817 -0.3945802762459655 -0.15248181117636944 -0.12644887816675612
0.045097828333132806 0.29517508981442453 0.15886619168636623 0.14000443529746215 0.27046590254274944


0.0611530867303367 -0.09918491588366812 0.1536311027974492 0.048725139637560644 -0.04537372325542923
0.058315607033355546 -0.09403298174194286 0.019210394300652186 -0.0010581432478008756 0.1395962017938857
0.1467134805752825 0.36911928401117955 -0.15156927744196555 -0.1744228258302331 0.2243638872551023
0.0037025324529339036 0.14138236068464521 -0.06784314583137174 0.3047524603853536 0.1316877869810494
0.10217282083057026 0.07205591432909877 -0.02635453892876313 0.31721492356693387 0.12243788989095612


-0.19698809887674493 0.18030066085542704 0.33606564577785086 -0.13090825272975837 -0.03027535541699214
0.03945829918459917 0.1929022932137243 -0.0029229496535660144 0.11536588658508228 -0.2185825539346912
-0.09183168820234329 0.27744174224648255 -0.17985125149441722 -0.06291254494040747 -0.23566641939114655
0.21098047340850667 0.10684587644369217 -0.26436743368592924 -0.09723720878998501 0.26999915425817883
-0.4106443579988103 -0.08539724124675029 -0.0035316525865895427 -0.16773561713559387 0.3776850615818864


-0.33429550965691135 0.015760094806767606 -0.055268753205986995 -0.17455906161620638 -0.2279947160564322
-0.03282940288185726 0.11812514646469374 -0.18638879821203921 -0.6672381448299761 -0.38231696892186534
-0.08049351702429967 -0.28553622938922024 -0.16742628143911784 -0.1020269997200658 -0.21233816482649437
0.15772528947500522 -0.415870035868866 -0.07123777471875174 -0.11244287272425134 -0.17183478760753335
0.13682462546305266 0.12077149212533834 -0.2801972229264131 -0.136261329581083 -0.4600743442449945


-0.5180627529431886 -0.2623409399559066 0.2173020771706217 -0.05115115663158356 0.015205402472181665
-0.11830601288317566 -0.17371362355018366 -0.26226307905768587 -0.1268988757627186 0.05821894810900401
0.11935963990599997 0.24870312332613495 0.047461418597883 -0.04041565612821729 0.04613264990810957
-0.0995283979041372 -0.23426398060221099 0.1440311526915502 0.21444211921873854 0.23530143873686493
-0.12819163374092002 0.008255389224584292 -0.1675861118543943 0.024898062952040008 -0.24421838765886783


0.07658439735537192 0.030821419807245128 0.11412685270917915 -0.06335082661277244 0.3164178456778063
-0.025350110300343415 0.07877363248513083 0.33749813297717196 -0.2570246591132936 0.10165197541442272
0.003052478598807738 0.044964096027762905 0.10604970130124745 -0.02317662835301861 0.07387384402848542
0.0001572637356948697 0.1802194906578647 -0.08657366934357741 -0.029107375677612405 0.011196962731335839
0.0942294937472519 0.1647849871255618 -0.17176981787384624 0.39518876236567524 0.4114038972473625


-0.11795082346163699 0.0034780412353545478 0.14758805621507406 0.07027225762668268 0.2536146269406212
-0.3619672601221765 -0.028914231954118446 -0.284721218017363 -0.08825131931818511 -0.10377573119550208
-0.20868175930870803 0.14292161347721238 -0.1109944921040236 -0.44490978394064684 -0.3811595250133369
0.2443092358294543 -0.42019439804718034 0.1063330427290237 -0.06635420065021544 0.018509949739838525
0.1643398999098072 -0.4142281563919173 -0.08409534718064549 -0.1374363816934767 -0.3368819981969557


-0.1760902398804377 0.13167400091554296 -0.2570519811461481 -0.17857326384694072 -0.45859682303536226
-0.5430858300433025 -0.3103562714834728 -0.05583565905528468 -0.040378102909000416 -0.1704675172939092
-0.15961093893258915 0.07234111537346861 -0.45097999279800277 -0.00302689505769379 -0.16854295116128765
-0.19435953682468363 0.11047938971782659 0.17425545569048492 -0.15230526046752882 -0.04996659757074604
-0.1790638310129351 -0.34164873897999126 -0.06722270622358809 0.394281432474362 0.19907591965911378


-0.25567782708169123 0.01603400736410805 -0.2548968568089276 -0.24538072922387022 -0.02365734365112946
-0.051655651420553464 0.13319742231409631 0.1746847362955897 0.06980289563353509 0.058814419290749015
0.016481022593833352 0.07279241486384246 0.023338007874724027 0.041419147433812 0.11183529511818087
0.02761483776752189 0.011765498028319568 -0.08197616114758287 -0.0587593747750833 0.1539347959339832
0.05762545006388739 -0.03977596728818252 -0.08505143972165706 0.16669285201435538 -0.06904681635157263


-0.07459953144063625 0.2672032874039171 -0.10309528896366942 0.1156261926623217 0.10269652273470226
-0.15461849365380498 -0.1768341982391868 0.10882365286187959 -0.06270295775528761 -0.0021219468433635942
-0.3274669401652746 -0.07222989843778786 -0.25329806733648424 -0.005525599189145564 -0.01849154608942822
-0.022488540659236098 0.06303753142107234 -0.22356534731427097 -0.27325909907479096 -0.27944045817741936
0.028471167455424967 -0.18399053970082527 0.01665918894532236 -0.043632291912785844 0.0207048838344605


0.022291799170842706 -0.3510570764512778 -0.054099019843086744 0.028991331408437994 0.04629209650579701
-0.1249144090294227 -0.19650713565571992 -0.146045415354731 -0.09976338194546912 -0.34526758457514395
-0.42234774433769146 -0.2758284416916842 -0.2383297673085631 -0.07333138378556217 -0.004627194078818424
0.0484098389118426 0.12089427545823846 -0.3549568539918867 -0.026918653678695968 -0.1866774149151856
-0.17611689586862989 -0.11271579961874234 0.025004537678860045 -0.17991341460010454 0.06519479607616135


-0.20910130281414455 -0.2843567874036633 -0.22789794672672262 -0.1445360405992004 0.002471266689612569
-0.17032706305157075 -0.01909178228097753 -0.17934739371560202 -0.12580280845805736 -0.0813863392959448
-0.10909064325892998 -0.02063459189399094 0.11579624752467048 -0.08627420594469563 -0.20793383523738165
0.2177882780338016 0.09684309484734294 0.07332126772493913 0.10851410242571975 -0.08980333940805585
0.12615482060084954 0.16054809129464534 0.16871514164510326 -0.12281172340601365 0.2651458891408776


0.1029470134886189 -0.060735567014880566 -0.0873899263570854 0.07413862042880355 0.14119344269311057
0.03769179354061862 0.13200059305692835 0.0423193174800316 0.08106843736798669 0.24047494023392188
-0.07255116818632606 -0.013946151447952094 0.2196973288889327 0.30747986575900743 0.1041767810862294
-0.1560467336355972 -0.08529544490716419 -0.11300205770495195 0.08562798734222728 0.04370450932524833
0.30530633123459605 0.021848344373957735 -0.20561674145866438 -0.15963988945441018 -0.12617844534809233


0.10188525666571663 -0.04677816516969156 0.04592204262305053 -0.005906352371611491 0.18345122635960426
0.08764147216172431 -0.042751009206710135 0.15979326690476559 0.21209141346572 0.17029138322994133
-0.04049383627069166 0.000287190128999464 -0.04111828675079245 0.09804969040460672 -0.047028865737829335
-0.08457383810368196 -0.14053697593307632 0.1784934436321311 0.10786902344033107 0.09163538754754601
0.07508302614228447 -0.06302953261177215 -0.20335047389252633 -0.17398762101356735 0.06441137248454464


0.010560057676237314 0.10801274918296529 -0.08050557149533676 -0.1528831736832528 -0.10102044286365848
0.09569219109707094 0.13050106026535688 -0.1338552536517791 0.0003256131650442498 0.1779178657110033
0.2080548477902338 0.21919521800029604 -0.2656658200788602 -0.04106508662244209 -0.11181577106442606
0.1120105939377742 0.0615037154424375 0.3249553495546654 0.10222340405976973 -0.09099056173947372
-0.04679611792015296 0.13099823778475153 0.07529383075750037 0.09364399147446945 0.23211083939011787




-0.0315034451943606 -0.17348425700094178 -0.026225772659055856 0.07559862077322455 0.041927584781549315
0.144578363475824 0.31958147971152656 -0.2467565266418073 -0.03710869121917257 -0.3745511108785537
-0.007516783093924228 -0.12865918930194722 -0.07536426162268725 -0.07304523438352882 0.09919372164067003
0.04618922262266407 0.17699589069899657 -0.28715074517687367 0.3010219149693036 -0.22224486915696556
0.18491800573303596 0.33298345316722033 0.2718633472625871 -0.32407820074863264 -0.007412951849467563


-0.2378848578139088 0.037075232393995364 -0.14564130037793357 0.035455869048350803 0.08007101756278638
-0.04999992143935199 -0.049602412537322865 0.10856954631115434 0.2799194356949417 0.10579240271440096
-0.0298594224826252 0.08241921220009811 0.22756709262025918 0.2478503431339671 0.031621853639095886
0.13819055807658576 0.34722810901324186 0.10105743664962681 -0.17433751539319783 -0.21430518868440515
-0.14103993928855024 -0.08869407736869873 -0.059132366876710016 -0.0947332020634142 0.11930276058016923


-0.1986659848491677 0.14242215553469872 0.035298360860748924 0.2983355730503495 -0.26309561167516327
0.0447806328184486 0.04525322336257696 0.2544890931727293 0.01517248678236923 0.0711243517949595
-0.20778990987944745 -0.2776743664122332 -0.08725852659421489 -0.2992392727624956 0.03934895598367859
-0.08563932953355927 -0.23839524824236588 0.20674823620156746 -0.019456902212066373 0.0209807469473608
-0.16698841323006242 0.07153115157199637 -0.04080774660159942 -0.12104998143901538 -0.004063643436042385


0.5425007505555557 0.00818228618874611 0.021219175084375475 0.37680103980507845 -0.24621800683524744
0.023390390668554698 0.04558591158793286 -0.00889681836190511 0.05815461967859992 -0.029831605890058677
0.27689244021480725 0.09862856174948109 -0.13736888919246878 -0.1527637052096243 -0.06902477135210616
-0.02705165597787693 -0.2240715078699535 -0.07250327602621397 0.0838088068836338 -0.1533765723096165
0.05758422092382602 0.08303463316356866 -0.1285175046258529 0.07928409594390526 -0.17390291822134663


-0.026043535937732024 0.2126005180852319 0.1719494370041814 -0.28541726747336416 0.12250166753502843
-0.12971528818366432 0.02506275571455652 -0.29664593219310276 0.12888932709355422 0.15054623499953063
-0.15466760696929982 0.1649754806897887 -0.101344427299326 0.043368627826966176 0.18266308380484822
0.09126428023248043 0.10554368753839494 0.28113685093861635 -0.04720081977512194 -0.16145503334180947
0.11014918431320624 0.29132376865641435 0.12867929983389334 -0.33319371195225156 -0.2076127231996898


-0.04180023660113242 -0.16577636576708046 -0.20708080581365573 -0.0640643188374443 0.1369144673340237
-0.07848394556310664 0.17048785311075085 -0.2548496821093142 0.21352494945846728 -0.22415696582154426
-0.32642381638597984 -0.19840386138275 0.15623419954766202 0.022887104015444363 -0.2677004420833699
-0.5544695557447251 -0.505642726496189 -0.13260678099369277 -0.4926056894130046 -0.11705393564265507
0.05478270618082321 -0.10339747411848385 0.36467843246874704 -0.09427691004563292 0.19709764684057643


-0.22557330900527536 -0.0054071132682365144 0.0569127892288964 0.20000285257612097 -0.07353743643851716
0.024681895754326482 -0.2808061534990537 -0.15387115456610498 0.05393330391113994 -0.13112564246305647
0.07971460572912048 -0.13053156360379714 0.04208673490810375 0.09707249470338503 0.02351976592187429
0.16678682249913182 0.08981505547748825 -0.07939128790388009 -0.14793010212930882 0.12351133002633967
-0.024300128510210472 -0.4108362590219207 0.060489772266572955 -0.05360896016513731 -0.2161752151302007


-0.0309804021863841 0.06538731026061481 -0.31258284024772764 0.40447245503408713 -0.0699631351429031
0.16022041629680842 0.2490980236581891 0.0028400194212211422 -0.23175298133708522 -0.06702813884225368
0.05835653878140994 -0.025186913753870995 -0.35534539873558924 0.02050273968123325 0.1858192356569605
0.08251384919119538 -0.07132240517014025 -0.07399864190861469 0.09133675212414584 0.34021454828374026
-0.13698965605059452 0.0527547244437963 0.2572888676492496 -0.1271914203522445 -0.07393961791686306


-0.23789658820217932 0.20430880273409474 -0.221885413205693 -0.5057748870333865 -0.16810871050287893
-0.05038476035552364 -0.09226590114288227 -0.19595340749691634 -0.04796325092560258 0.2263466916235761
0.008205248035253987 0.1297041443796349 -0.21592732448218122 0.2887710235025104 -0.334163934825796
-0.21220972213242673 -0.3423120221502831 0.21050040987398572 -0.03575184812055274 -0.1805789498458264
-0.5873831864782263 -0.4260552543332516 -0.24463511178525454 -0.3598270202919675 -0.17835320187788228


0.34021448755781436 0.13962690711929487 0.326722178218093 -0.1256419371283199 0.1642906628439141
-0.4811457501659884 0.08729419924893171 -0.10720897626120528 0.1943827910887505 -0.2268026634261696
-0.04572444648029435 -0.21166970907226385 0.06589634727323505 0.27772089232439184 -0.32486095792266817
-0.09948770902602726 -0.2236954372202827 -0.009345780717318624 0.0367013134262527 0.12714665466832267
-0.10338138675067884 -0.021408256077589744 0.1185882183471628 -0.02373121528689816 -0.08549075943170724


-0.023967158484708293 0.05383892044159675 0.013186776660788338 0.15886613720683004 -0.1291252135560559
0.17736400377825684 -0.05996907265783207 -0.08660530662708098 0.36950894028162234 -0.30605548914231334
0.011371931986644263 -0.17522460443694937 0.11077965078922211 0.2396505374082045 -0.06546191734639982
-0.06230590389044472 0.19470008951531487 -0.01587892427248847 0.18706231887637687 0.40070083591838584
-0.15987058678427707 0.03278611227749019 -0.25393543270085306 -0.06731731917780244 0.3201019042358932


-0.23819579078044165 0.14888884864439755 -0.20209103860147307 -0.14300865852895098 0.04716867364847866
-0.09041667995929445 0.016324381558252544 -0.027059013571995548 0.036154126442807556 0.1700826766113407
0.16444959958269892 -0.23127035806768154 -0.11709716670612844 -0.26890304499943707 0.23740175945330783
-0.03590156491741492 0.11235242114944502 -0.18172709852885213 -0.012899549590909255 -0.2582980347008352
0.17093021992560997 0.1640648488077671 0.09917367202574517 0.022773565333898578 0.06810805083582884


-0.20476061779026625 -0.11964576443374478 -0.3185448294600712 -0.09321501294651613 -0.3037748769034225
0.12713649172904518 -0.11397593772794473 0.3452260126821944 -0.3138584187673327 0.023547566189914618
-0.16252607602127814 0.015234258856839865 -0.30112519364337953 -0.08383819317053562 -0.10565270774974334
0.17239024976027123 0.0660970525827437 0.03386190497706394 0.147457480823882 0.1265737347024384
0.06753289894476168 0.0914972718114519 -0.15957436048940418 -0.2294675337488305 0.2180368075423982


0.12037617668793006 0.1549074568305451 0.10426042696728291 0.17964391554819908 -0.20479524511641506
0.07515090015420978 0.07375241607372778 -0.009404814213101584 0.10712628878697085 0.4858741241713405
0.07907459495488037 0.07802764466024066 -0.06757662963530382 0.032698265376407035 -0.37734187402095987
0.08518811775865752 -0.03149638744806601 0.4865865862944645 0.13988698776311914 0.017463962068552705
-0.23201255051407713 0.23837919811177374 0.01777156877733599 0.10921005658597456 0.060555753283057526


0.30363464824343095 0.053409206986061886 0.07930199266538496 -0.35216813232818933 -0.05728907553646444
-0.29335777144615 0.005965600851707258 -0.15728441361346635 0.3545811180831889 0.20135801862901828
0.004514502712105908 -0.1900383407770842 0.09427452701205141 -0.031228497346149242 0.2523717347464859
0.11172720519664844 -0.028065629254110817 0.07892469308257141 -0.03104895398017874 -0.16998297629086928
-0.05545548159672212 -0.3030770247202055 -0.0252298140962561 -0.15759213295928992 -0.038340082259430024


0.16620078196005503 0.03568107122067353 -0.2526277936087541 -0.011050480062755339 -0.029784768621689984
0.21397857348787655 -0.10390960981970751 -0.07810629995910642 -0.00754729889171748 0.1399531895584729
-0.02285507048880402 0.11923026101180093 0.1273920110590606 0.011474905016503532 -0.18215343346953636
-0.09796484207486313 -0.0016801822313585893 -0.1127528123281805 -0.14512884917134886 -0.15332391472392837
0.23747493050453436 0.12588426223052526 0.11207919416942562 0.07116618246021843 -0.06456734577328746




0.08744108196746277 0.37540892339674103 -0.04701115807652476 0.13273186511720317 0.19534542201409288
-0.13294823239326894 -0.30340565071831554 -0.014624434952279214 0.358282442659248 0.4607445976626518
-0.23201440195480513 0.2610533338562962 0.041921415991319974 0.24583167131193445 -0.1839904460396854
0.04315373509087819 0.06617604556257643 -0.004962508222634803 -0.18072594393966446 0.23998721261680292
-0.2317395295074045 -0.20843354225787183 0.038765937912792946 -0.07818696450883172 0.030206564193255552


0.07524678346803314 -0.13278073485622857 0.0874000936943721 0.09223084955502435 0.10923164052026627
0.0022833075153064516 -0.0547384076095364 -0.04786021407101037 -0.03676285936124318 -0.05548329574388546
-0.19521864500137487 -0.027359632919947637 -0.2389149317044403 -0.03038646741757904 0.15139633708014902
0.008832485719434534 0.0908129336858925 0.41130793405049537 0.06870296629199812 -0.031394527634141835
0.019734505955556668 0.04285843141632156 0.06130246046288693 -0.07347655301765496 0.05893954534023763


0.2827620608466963 0.039348414532757746 0.04089024130411565 -0.15530297554479103 0.15477644697135406
0.2262972172970102 0.2834301785308666 0.11310425790355355 0.1618725633572568 -0.18703167944164031
-0.16792475055242012 0.0717882763761576 0.12734363025990786 0.0991924707731078 0.2223731370140051
0.04184700892253683 0.16713981219833948 0.22319498729556325 -0.17403307161632864 -0.1282184120590136
-0.12587562444932499 0.1231774992501971 0.1978201494951484 0.08575285612347773 0.3926648701883062


-0.19918825637412643 0.11686560411081089 0.32564024210693965 -0.09978910568488492 0.1868669991645451
0.3054198109088595 0.25144245982456626 -0.17967611435483655 0.02168541304761321 -0.09554192046969827
0.0206926162314496 -0.17748235868451356 -0.26462651399495707 0.06537380050087585 0.06636915379358262
-0.029620427954046166 -0.16902464537817766 0.09449293847003894 -0.2663293989979665 -0.058631882480150735
-0.0763675364511419 0.18417617010098272 0.18957385463943235 -0.31283638603800645 -0.1965811756684818


-0.41675134967140315 -0.05709415811929261 -0.24734842875086352 -0.1296426902712717 0.00264781530848379
-0.17671297189593518 -0.13148934266393525 0.3686205697829376 -0.11719575286024521 -0.1517381980828921
0.06897007473218741 -0.3787182425535821 -0.14672064382032812 0.06717704875265713 0.0629465290687619
0.11928672347969023 -0.061672035626985165 -0.09536630637018391 0.06193443652237449 0.33771195737931425
-0.3063825452914879 -0.12168057943810477 0.07666366703393 0.3237038458199536 0.07950004758331891


0.36031431439736444 -0.21806124290548368 -0.031201794719309305 -0.1269565039631357 -0.11518437676717196
0.1251388641378918 0.0017677706563032612 0.16139704508956557 -0.04206283738461276 0.2426063661492012
0.279711660747568 0.027282003837206234 0.01738416335382702 0.15694242189392202 -0.3745054193081297
-0.4186208992998613 -0.33780309923858215 0.17444932364368693 0.0844163603544641 0.05531244624380743
-0.14604003521726822 0.0967406241992983 -0.09079910652232935 -0.11811940100287258 -0.11414678485929332


-0.19644252677539187 0.03422783633143356 -0.08290623543583588 0.040179572192443024 0.17046264480913387
-0.020289066034426533 -0.051015937071989675 -0.10335155924086088 0.14648964283874696 -0.1467414502621534
0.2684421093146578 -0.15943955670018484 -0.0918478920080217 -0.11654467640390227 0.04077753576772433
-0.03229582206159257 -0.1255666249637405 -0.08683564273019445 0.010406360468009008 -0.08442981336021388
0.05695690241382219 -0.24451802120139246 -0.02126021034494889 -0.26233439129607655 0.23337940708288352


0.16178261482923154 -0.023654015198285114 0.1971168779365968 -0.15623906351784086 -0.2915195497131639
-0.4015225314102545 0.19019930210475008 -0.28780947541173457 -0.3262054086762222 -0.09685012326856908
0.03853236751317988 -0.15651457650686468 0.5973064142227692 -0.020026970312716198 0.24575782300223256
0.06803895513531409 -0.35373774022168936 -0.27254852328952456 0.04465020539970005 -0.08690356841302758
0.13575454235316806 -0.2762335823318143 0.20492920637049072 0.02334072594044624 0.5676472964791098


0.028508875127881 -0.09765407329813912 -0.24782383244685896 -0.050350440127388416 -0.10443913930844458
0.24967027605169673 -0.27108991681372546 -0.36274409449626127 -0.19592550309307857 -0.026788076395109765
-0.12046057760165904 0.03914819773735665 0.001811375359375436 0.09252697079672852 0.08087535786270879
0.41080030559683817 0.41930912246285545 0.20040630596792414 0.0704158694676055 -0.6366682569910947
-0.5066059863843951 -0.41506274407278554 0.20975277171629692 0.23504909859633263 0.09365777199983284


-0.14497086200074494 0.19411873505321675 -0.18109360352262552 0.07314361343906546 -0.08769311557866309
-0.20901570700738056 -0.09739724914954362 -0.0980682403890393 -0.049102154495904736 -0.04643424422566043
0.01879493984785564 0.040543918307073754 -0.0026982369922583112 0.21931482487898046 0.06925089068056157
-0.173209899647969 -0.39200672721708246 0.06983381012071056 -0.1088919102982085 -0.08726605985186374
-0.0689036709118395 0.14038420674407462 -0.060898352404496175 -0.01044538524792741 -0.14115373208552226


-0.058178172685385734 0.041242779756276764 0.06210042313292336 0.04158386454434514 0.08397907244041948
0.07350268257737788 -0.16413617461997201 0.08948756982600194 -0.3118318785000735 0.1909197610007829
-0.5729263437900196 0.18880026613797118 -0.2921709565720816 -0.1524537619612419 -0.00547920435934402
0.09807523764916487 -0.045307524225933045 0.31804053021563594 -0.34671389577304745 -0.37559111272626283
-0.12917224359669577 -0.4493188736160153 -0.666534771280601 0.15627695829967136 -0.4988244371571706


0.5172522073564157 -0.3892459325673376 0.25699666060079596 -0.426275071495581 -0.044796401671812036
0.11368110727461089 -0.008352940827016436 -0.07131161712962533 -0.15324180989500297 -0.6711270987073846
-0.6961053073511112 -0.34688447250807675 -0.5290356464550537 -0.23727012960552687 0.2224735689835507
-0.21385595881121053 0.020715355249412894 -0.08380866773329762 0.14564598977215215 -0.1327722574715072
-0.11560791915459923 0.1658987947879342 0.25458657734584844 0.2603633023961102 -0.2835491728547697


-0.42142543434018187 -0.34763070766607684 0.3867092676470226 -0.11904452923122189 0.07276117833482
-0.15725656726341541 0.04249428520981331 0.12323636966355657 0.16193761868199336 -0.04364589970640245
-0.02274510508036482 -0.13998948206065306 -0.2255113307516543 0.044291739990676086 -0.18887110697401252
-0.06474996553636878 0.021917049481988474 0.3440246328089797 0.150379933802103 -0.03160366876666545
-0.06903415928497009 -0.19128679171629714 -0.01627749750384786 -0.05193936581846636 0.07337867275673465


0.09115315991953152 0.2803869297563628 0.08578327915093155 0.2126289256896384 -0.025376493460513898
-0.05689895103397493 0.024717099989764336 0.349609657385718 0.053852344596020944 0.3079209157056627
0.14547844171981228 -0.026789942163732136 -0.007624967011211272 -0.20607374638218975 0.11734669132599865
-0.1309849497536164 0.21212003428972986 -0.2282941801433227 0.31265430444038134 0.2862625399248816
0.5812751596579473 -0.06340065157278896 -0.05656995799942409 -0.3401623606215099 -0.5510868507342614


0.042855050680766775 0.01393615044534915 -0.37759544636145415 0.034251814617692694 -0.43393689870287433
0.5371990623530262 0.007575195579437577 -0.06255161919525913 -0.16591566641151947 0.1633551313825203
-0.17061823886005736 0.16187591993346218 -0.13772462982748773 -0.32763419922990267 -0.30875622933731844
-0.16150750380367246 -0.4480218356974164 -0.2598329808226317 0.009199666328212702 0.44199969025682584
-0.15985061550395666 0.32722988482114146 0.10239311953184285 -0.0310956340394069 -0.013131639880544766


-0.19407973410750376 0.04260168874507652 -0.08247355295977203 0.10465136944005714 0.04346518858917196
-0.14530789024004487 0.45179070593068044 0.17780526463741084 -0.39517805779352777 0.1502840647552292
-0.17498925314772673 0.25723417816249905 0.3054987951858558 0.36493735651505194 -0.2401840084435547
0.3795548669989021 -0.19492654870821452 -0.12469025806962658 -0.07799633605728348 0.09676579783122927
-0.04335358769002296 0.2466914569747182 0.22964641403189684 0.3007033622883034 0.34096007068808376




0.183108101845549 0.03498472622824306 0.050053203344281184 -0.031179132124824253 -0.13929293679970864
0.031302897873523056 0.0768762853416865 -0.11920494653785321 -0.11028600618860522 -0.061797241612527004
-0.024866196544747397 0.12339054654646602 0.049329190923680474 0.06444060792032907 0.12379321689517375
-0.05914372124840471 0.2383083096838731 -0.030296413501719563 0.05630353422010121 0.04069527620660019
-0.07957822043213254 -0.06238140077198259 -0.08498062805835431 0.15531884050854 -0.04496008318474329


0.12020764582486156 0.13023433848179491 -0.05337753929485718 0.01728857440859018 -0.038069766504417034
-0.0294540843181489 0.02652605114373988 0.04645801054134572 0.0652155828934907 0.2852229570944986
-0.08847350595832393 -0.07439216898643554 0.06075381183114912 -0.04943487920448581 0.2828281246654807
0.11629292188754002 0.14734960200795452 0.08623135352568534 -0.051063028450404106 0.22336495413524304
0.25569904057892723 0.050091997796174195 -0.10122609733641731 0.04429752868851161 -0.18643842080985987


0.15191162639431796 0.02049832083519105 -0.12159883091480987 0.18230875955091919 -0.12933196540790634
0.1016720043308601 -0.03053065284732326 0.17686371122009242 -0.08385316178197615 -0.08172424171707739
0.17946740286421298 0.13705013344736167 0.0202690525574417 -0.09601853713285395 -0.013531890395026414
0.0025448960589034997 -0.03651125317284673 -0.13406311488732442 0.07759384438607979 0.0020979151079211634
0.0032143357975172996 0.12136946422865767 0.020607826277403034 -0.013765372593976996 0.056355383830986004


-0.12567271393406365 0.240947060905134 -0.17081452309319053 0.01466641741529063 0.056097507082021034
-0.10796985978965419 -0.020459979917004 0.12111865068521573 0.04575668177739667 0.00470795513824309
-0.1454357414779662 0.10092883684995367 -0.06135619167530458 -0.06982698971722662 -0.21158120565090247
0.11141450439788154 0.1384786331945525 0.15980921000839818 -0.040238364338628305 -0.10479558610264343
-0.1289457194597317 -0.11929935651515892 -0.32228659726292824 -0.06440326163199116 -0.14107759605416534


-0.052382730031622686 -0.5997312172681767 -0.11881693007044668 -0.25003078244455806 0.03514669427839424
-0.26698972559511425 0.2697139151414485 -0.08644324374024588 0.08071288997691481 -0.016376158274255165
-0.22273559810682492 -0.13322040641839356 -0.10495380945032362 -0.21611882108310934 0.06644014368942257
-0.1829639834753851 -0.08796476375841861 -0.34362982562658156 -0.0867681423111556 0.003124564048843611
0.09929159389369105 -0.08299589974847049 0.05584870947587472 0.08354949564342083 0.15149701301638005


0.06679231766541355 -0.28170560538543854 0.07881891203964664 -0.042827252962545415 -0.22139841735013585
-0.044390391379984434 -0.09793502261698953 -0.06730070327290098 -0.4569242449898366 0.09033257143829311
-0.0024532041800337735 0.06797110880760998 -0.04207919831604333 0.027816937780312814 0.004852115108145489
0.07459886735266064 -0.01759047951888425 -0.17129196065100388 0.02849901794030622 0.04894785955191092
0.023672254799202066 0.04347642883744051 -0.3719058517243413 0.004888969139420941 0.09485177896120141


-0.0469756785309076 0.11733267542063294 0.06339044831934598 0.10540465081610602 0.07643196791652976
0.17854976444231554 0.05472836231570565 -0.07252248162614588 -0.04265760598004344 0.08821495688283656
-0.04078390239445266 0.029412256580978673 0.044099536674 0.10172884898424929 0.04610948038037955
-0.031126129831504885 0.16533657560923662 0.019439228824768468 0.052731883581795314 -0.1795997097607787
-0.13712173713484005 0.058071003331642876 -0.00999981410216493 0.021970050615886007 -0.18876415586120715


0.09605782546401866 -0.11659028541960532 -0.3511751742154695 0.05970936107785761 -0.43101416714489266
0.04937032483827601 -0.7263003374991697 0.03675448972881643 -0.1595582650211183 0.07815475794345325
-0.3463877896757224 -0.04433587745916612 -0.08147149031528597 -0.04563286508619679 -0.0245219833162759
-0.09743533299298812 -0.09419911786493752 0.11132383166805902 -0.384690306790334 0.19153631619857756
-0.6423803025985381 0.037658567513933906 -0.530079194999776 -0.06170779947736226 -0.21790551673425979


-0.09872149569999115 -0.207272123505666 -0.04867217931232843 0.01583285789053516 0.1519152419877855
0.06559714344302055 -0.06869191489828282 0.005701129430079727 -0.032274145976817006 -0.3861676229837598
0.11050950908256266 -0.5657175316290571 -0.04666847116899696 -0.41770036596244703 -0.04363761510031977
-0.22067888852167455 -0.09442703311601836 -0.04185892789495851 -0.21202183201308378 -0.09916521777275775
0.03825010690685506 0.03575624680906094 0.000360247027534996 0.1393915487750992 0.12721132802020768


0.11035076773508472 0.06656204468181715 -0.35193698771131104 -0.0651977656720902 0.00011281949499267117
-0.039027476415532156 0.05052464883340334 0.00343637489492759 0.23254257920155805 -0.22891506266452188
0.4139030699936233 0.1903465104953927 0.08225563848031668 0.06074924022720944 0.06677738905238458
-0.11442220180497943 -0.010588528301979788 0.021502618838117136 -0.09264274355165768 0.02813662354511056
-0.1545354036721385 -0.09160064023017944 0.019707545845814155 -0.10442021880309507 -0.09268108046851999


-0.07886926082251833 -0.029886456767002818 -0.03694639736949497 0.1137673098506963 0.06211417243125698
0.03563006921135115 -0.15850837533008555 -0.1962999559626452 0.19348419719865342 -0.2610169564416358
0.10577902190267695 -0.5280563741944522 -0.019400095555195167 -0.23915125727024042 -0.10978251208821516
-0.2778008487745579 -0.031602258819666856 -0.21229793651755732 0.02132521106730149 -0.017638567192017788
-0.11866193064432044 0.2067665014861425 -0.19971102256081547 -0.1820980824532434 0.05365569264703913


-0.5188990527064872 0.04011475924111856 -0.5712620217417067 0.06735257144693925 -0.12159494835462005
-0.12082427420734734 -0.2887905469796792 -0.14091090119879074 -0.22485003214819324 0.3605076077312349
-0.08354080837568452 -0.20988206700478348 0.17582288749158784 -0.1884789083724248 -0.3132710603777938
-0.0174052188753568 -0.29387278560258834 0.18172880212685516 -0.3984140914252693 0.08087039166904457
-0.1443847494929481 -0.1334601595245944 -0.22836282934654537 -0.19067834188404914 -0.2405185587035135


0.09609446925566828 0.14039516401968632 0.007221326104725035 0.04181852426985472 0.02519422045978008
-0.29257032103458963 -0.005362608033614197 -0.24315514439889918 0.026349244147170207 -0.1614992332587664
0.11004209428592794 0.038522145942913935 0.006422624910732042 0.05319465725590328 -0.015173667024772389
0.2788189453471811 -0.16830822101803602 0.02150350459574909 0.14342606367941396 -0.18270630188782327
-0.15711542629907516 0.27079329147280434 0.038549804599670626 0.019156844030468138 -0.029138268278219182


0.31214961780314965 0.14146742980652077 -0.0027940323756016896 0.22312881892714384 0.09821677177718367
0.07040714826784601 0.07854998037256997 0.20603231026501864 0.3984351801939431 0.16610502620961928
-0.1073874414801288 -0.07111444338874913 -0.3824296600833455 0.0947875069914248 0.07155622806423947
-0.25848040769773517 -0.03372966054915919 0.15788120866195696 0.12057627545333344 0.04695686143892655
-0.05194206367974321 0.17770804461660164 -0.18465991091146114 0.13504688637084192 0.02436980721051791


0.027674557451437348 0.10754123473158851 0.06075191433193864 -0.1996049607614026 0.100742294849428
-0.22608542884429722 -0.07472692996042188 -0.042482888650197836 0.01032409411756433 0.04773687841682606
0.1240219570821001 -0.03672027660006872 0.208661291426813 -0.2064721297581181 0.12389191226913426
-0.03979297360804893 -0.042594761578062586 0.267761139326186 -0.02016556452079818 -0.17260882422373097
-0.012787458457312257 -0.4116170856440564 0.07513828662717906 0.11158812157201625 0.12493240012638239


0.29236597983928003 0.1575214174538844 0.16705271409551614 0.13090025732478466 -0.2678792642952571
0.01780072719135002 0.03672402788953773 0.1873006328849918 0.32739790260551593 -0.02976905565527152
-0.10371479456380592 -0.07659636820702767 -0.10632967709845194 0.0988055837703054 0.1591942710618671
0.11929801809566053 0.19413140732596937 0.2400292633614485 0.04019216573686686 0.290188950364019
0.23657769255836533 -0.09229602321189324 0.27240488186086004 0.2433980817082593 0.08534810246735237




-0.20128141183769585 0.18519646154110136 0.004771925417748104 -0.006982729962201753 -0.15768034276287435
